#############################################################################
## Copyright (c) 1996, Carnegie Mellon University, Cambridge University,
## Ronald Rosenfeld and Philip Clarkson
## Version 3, Copyright (c) 2006, Carnegie Mellon University 
## Contributors includes Wen Xu, Ananlada Chotimongkol, 
## David Huggins-Daines, Arthur Chan and Alan Black 
#############################################################################
=============================================================================
===============  This file was produced by the CMU-Cambridge  ===============
===============     Statistical Language Modeling Toolkit     ===============
=============================================================================
This is a 3-gram language model, based on a vocabulary of 126 words,
  which begins "</s>", "<s>", "ada"...
This is a CLOSED-vocabulary model
  (OOVs eliminated from training data and are forbidden in test data)
Good-Turing discounting was applied.
1-gram frequency of frequency : 0 
2-gram frequency of frequency : 5778 77 0 0 0 0 0 
3-gram frequency of frequency : 22502 1600 3960 0 0 0 0 
1-gram discounting ratios : 
2-gram discounting ratios : 0.00 
3-gram discounting ratios : 0.00 
This file is in the ARPA-standard format introduced by Doug Paul.

p(wd3|wd1,wd2)= if(trigram exists)           p_3(wd1,wd2,wd3)
                else if(bigram w1,w2 exists) bo_wt_2(w1,w2)*p(wd3|wd2)
                else                         p(wd3|w2)

p(wd2|wd1)= if(bigram exists) p_2(wd1,wd2)
            else              bo_wt_1(wd1)*p_1(wd2)

All probs and back-off weights (bo_wt) are given in log10 form.

Data formats:

Beginning of data mark: \data\
ngram 1=nr            # number of 1-grams
ngram 2=nr            # number of 2-grams
ngram 3=nr            # number of 3-grams

\1-grams:
p_1     wd_1 bo_wt_1
\2-grams:
p_2     wd_1 wd_2 bo_wt_2
\3-grams:
p_3     wd_1 wd_2 wd_3 

end of data mark: \end\

\data\
ngram 1=126
ngram 2=7354
ngram 3=37116

\1-grams:
-0.9375 </s>	-5.1571
-0.9375 <s>	-4.8654
-2.1474 ada	-4.0081
-2.4204 ada_kereta	-3.6994
-2.5158 ancol	-1.3294
-2.5234 angke	-3.1166
-1.4389 apa	-4.6609
-2.5469 batu_ceper	-3.1105
-2.5158 bekasi	-1.3253
-2.1347 berangkat	-3.9850
-2.1378 berapa	-4.0001
-2.4517 berikutnya	-3.7039
-2.1506 bisa	-3.9445
-2.5234 bogor	-1.3178
-2.5158 bojong_gede	-1.3253
-2.5234 bojong_indah	-1.3220
-2.5234 buaran	-1.3178
-2.5010 cakung	-1.3401
-2.5083 cawang	-1.3328
-2.5083 cicayur	-1.3328
-2.5158 cikini	-1.3253
-2.5158 cikoya	-1.3253
-2.5311 cilebut	-1.3101
-2.5083 cilejit	-1.3328
-2.5010 cipinang	-1.3401
-2.5389 cisauk	-1.3022
-2.5010 citayam	-1.3401
-2.5311 citeras	-1.3101
-2.4582 dan	-3.5935
-1.0671 dari	-4.9741
-2.5083 daru	-1.3328
-2.5234 depok	-1.3178
-2.5389 depok_baru	-1.3263
-2.1474 di	-3.9104
-2.4452 dimana	-3.7119
-2.5083 duren_kalibata	-1.3328
-2.5083 duri	-1.3328
-2.5158 gambir	-1.3294
-2.5234 gang_sentiong	-3.1166
-2.5389 gondangdia	-1.3022
-2.5158 grogol	-1.3253
-1.9681 ingin	-4.1812
-1.8577 jadwal	-4.2818
-2.4938 jakarta_kota	-1.3473
-2.4517 jalur	-3.6865
-4.2777 jam	-1.8921
-2.4326 jam_berapa	-3.6363
-2.5234 jatinegara	-1.3419
-2.5234 jayakarta	-1.3457
-2.5234 juanda	-1.3178
-2.5234 jurangmangu	-1.3258
-4.2777 jurusan	-1.8760
-2.4582 kalau	-3.6911
-2.5234 kali_deres	-1.3178
-2.5158 kampung_bandan	-1.3253
-2.4265 kapan	-3.7132
-2.4452 kapan_saja	-3.7104
-2.5234 karet	-1.3220
-0.9830 ke	-5.0579
-2.5234 kebayoran	-1.3218
-2.5158 kemayoran	-1.3295
-1.3671 kereta	-4.6630
-2.4265 kira-kira	-3.7291
-2.6670 klender	-1.1825
-2.5158 klender_baru	-1.3295
-2.5158 kramat	-1.3253
-2.5234 kranji	-1.3178
-2.4265 lama	-3.6789
-2.5083 lenteng_agung	-1.3569
-4.2777 lewat	0.1134
-2.5311 maja	-1.3183
-2.5083 mampang	-1.3328
-2.5083 mangga_besar	-1.3328
-2.5158 manggarai	-1.3295
-1.6681 mau	-4.4288
-3.9767 menuju	-2.2464
-2.4715 mulai_jam_berapa	-3.6745
-1.4867 naik	-4.6325
-2.1410 naiknya	-4.0015
-2.1378 paling_akhir	-3.9255
-4.2777 paling_awal	-1.8849
-2.4389 paling_pagi	-3.6792
-2.5158 palmerah	-1.3294
-2.5234 parung_panjang	-1.3218
-2.5389 pasar_minggu	-1.3263
-2.5469 pasar_minggu_baru	-3.0930
-2.5158 pasar_senen	-1.3294
-1.6724 pergi	-4.3948
-2.5234 pesing	-1.3258
-2.5158 pondok_cina	-1.3253
-2.5311 pondok_jati	-1.3101
-2.5234 pondok_ranji	-1.3218
-2.5083 poris	-1.3368
-2.5010 rajawali	-1.3401
-2.5158 rangkas_bitung	-1.3294
-2.5389 rawa_buaya	-1.3022
-2.5158 rawa_buntu	-1.3294
-2.4326 saja	-3.6728
-4.2777 sampai	0.1134
-2.4389 sampai_di	-3.6126
-2.4582 satu	-3.6990
-2.4938 sawah_besar	-1.3473
-1.5421 saya	-4.5958
-2.4143 selanjutnya	-3.6428
-4.2777 sembilan	-1.8388
-2.5083 serpong	-1.3569
-2.1347 stasiun	-3.9136
-2.5083 sudimara	-1.3328
-2.5158 sudirman	-1.3294
-2.5389 taman_kota	-1.3021
-2.5010 tanah_abang	-1.3401
-2.5234 tanah_tinggi	-1.3178
-2.5311 tangerang	-1.3143
-2.5010 tanjung_barat	-1.3401
-2.5010 tanjung_priok	-1.3401
-2.1473 tanya	-3.9860
-2.4938 tebet	-1.3473
-2.5158 tenjo	-1.3252
-4.2720 terakhir	-1.8352
-2.4582 tidak	-3.6472
-2.5083 tigaraksa	-1.3328
-2.4452 transit	-3.7119
-2.5010 universitas_indonesia	-1.3401
-2.5389 universitas_pancasila	-1.3022
-2.1410 ya	-3.9643
-3.6757 yang	-2.4365

\2-grams:
-0.0000 </s> <s> 0.0001
-4.7439 </s> mau -0.3021
-1.4829 <s> ada_kereta 0.0002
-2.6413 <s> ancol -0.5033
-2.5612 <s> angke -2.4476
-2.6402 <s> batu_ceper -2.3794
-2.5621 <s> bekasi -0.5824
-2.6413 <s> bogor -0.5108
-2.4952 <s> bojong_gede -0.6494
-2.4952 <s> bojong_indah -0.6450
-2.6413 <s> buaran -0.5108
-2.4952 <s> cakung -0.6227
-2.4952 <s> cawang -0.6178
-2.4952 <s> cicayur -0.6419
-2.4952 <s> cikini -0.6375
-2.4952 <s> cikoya -0.6375
-2.5621 <s> cilebut -0.5858
-2.5621 <s> cilejit -0.5750
-2.4952 <s> cipinang -0.6346
-2.6413 <s> cisauk -0.5264
-2.4952 <s> citayam -0.6346
-2.4952 <s> citeras -0.6527
-0.9025 <s> dari 0.7731
-2.4952 <s> daru -0.6419
-2.5621 <s> depok -0.5900
-2.4952 <s> depok_baru -0.6356
-2.4952 <s> duren_kalibata -0.6419
-2.4952 <s> duri -0.6300
-2.4952 <s> gambir -0.6374
-2.6402 <s> gang_sentiong -2.3808
-2.5621 <s> gondangdia -0.6055
-2.4952 <s> grogol -0.6494
-1.0502 <s> jadwal 0.1300
-2.4952 <s> jakarta_kota -0.6274
-3.3346 <s> jalur -1.8799
-1.5077 <s> jam_berapa -2.1775
-2.5621 <s> jatinegara -0.5780
-2.4952 <s> jayakarta -0.6326
-2.4952 <s> juanda -0.6569
-2.5621 <s> jurangmangu -0.5531
-3.3346 <s> jurusan 0.0056
-1.5207 <s> kalau 0.0001
-2.4952 <s> kali_deres -0.6450
-2.4952 <s> kampung_bandan -0.6375
-1.4890 <s> kapan 0.0001
-2.4952 <s> karet -0.6450
-1.4890 <s> ke -2.2765
-2.5621 <s> kebayoran -0.5780
-2.4952 <s> kemayoran -0.6375
-0.8994 <s> kereta -4.1387
-3.0393 <s> klender -0.2063
-2.5621 <s> klender_baru -0.5582
-2.5621 <s> kramat -0.5705
-2.4952 <s> kranji -0.6450
-2.4952 <s> lenteng_agung -0.6300
-2.6413 <s> maja -0.4943
-2.4952 <s> mampang -0.6300
-2.5621 <s> mangga_besar -0.5750
-2.4952 <s> manggarai -0.6252
-1.5141 <s> mau -3.5319
-1.5340 <s> mulai_jam_berapa 0.0001
-3.3346 <s> paling_akhir -1.8833
-3.3346 <s> paling_pagi -1.8801
-2.4952 <s> palmerah -0.6251
-2.4952 <s> parung_panjang -0.6450
-2.6413 <s> pasar_minggu -0.5144
-2.5612 <s> pasar_minggu_baru -2.4711
-2.5621 <s> pasar_senen -0.5704
-2.5621 <s> pesing -0.5657
-2.4952 <s> pondok_cina -0.6494
-2.5621 <s> pondok_jati -0.5858
-2.7382 <s> pondok_ranji -0.4139
-2.5621 <s> poris -0.5750
-2.4952 <s> rajawali -0.6346
-2.5621 <s> rangkas_bitung -0.5824
-2.5621 <s> rawa_buaya -0.6055
-2.5621 <s> rawa_buntu -0.5705
-2.4952 <s> sawah_besar -0.6274
-0.6600 <s> saya 0.0553
-2.4952 <s> serpong -0.6300
-2.5621 <s> sudimara -0.5750
-2.6413 <s> sudirman -0.5033
-2.4952 <s> taman_kota -0.6482
-2.4952 <s> tanah_abang -0.6346
-2.4952 <s> tanah_tinggi -0.6450
-2.5621 <s> tangerang -0.5858
-2.4952 <s> tanjung_barat -0.6227
-2.4952 <s> tanjung_priok -0.6346
-2.4952 <s> tebet -0.6274
-2.4952 <s> tenjo -0.6251
-2.5621 <s> tigaraksa -0.5750
-2.4952 <s> universitas_indonesia -0.6346
-2.5621 <s> universitas_pancasila -0.6055
-0.0000 ada di 0.0030
-0.0062 ada_kereta dari -2.7520
-1.8519 ada_kereta yang -1.7620
-0.5545 ancol </s> 1.5298
-1.8176 ancol ada 2.1852
-99.9990 ancol ancol 0.0657
-99.9990 ancol angke 0.0669
-99.9990 ancol batu_ceper 0.0710
-99.9990 ancol bekasi 0.0657
-99.9990 ancol bogor 0.0669
-99.9990 ancol bojong_gede 0.0657
-99.9990 ancol bojong_indah 0.0669
-99.9990 ancol buaran 0.0669
-99.9990 ancol cakung 0.0633
-99.9990 ancol cawang 0.0645
-99.9990 ancol cicayur 0.0645
-99.9990 ancol cikini 0.0657
-99.9990 ancol cikoya 0.0657
-99.9990 ancol cilebut 0.0682
-99.9990 ancol cilejit 0.0645
-99.9990 ancol cipinang 0.0633
-99.9990 ancol cisauk 0.0696
-99.9990 ancol citayam 0.0633
-99.9990 ancol citeras 0.0682
-1.1594 ancol dari 2.6074
-99.9990 ancol daru 0.0645
-99.9990 ancol depok 0.0669
-99.9990 ancol depok_baru 0.0696
-99.9990 ancol duren_kalibata 0.0645
-99.9990 ancol duri 0.0645
-99.9990 ancol gambir 0.0657
-99.9990 ancol gang_sentiong 0.0669
-99.9990 ancol gondangdia 0.0696
-99.9990 ancol grogol 0.0657
-99.9990 ancol jakarta_kota 0.0622
-99.9990 ancol jam 1.8921
-99.9990 ancol jam_berapa 0.0063
-99.9990 ancol jatinegara 0.0670
-99.9990 ancol jayakarta 0.0670
-99.9990 ancol juanda 0.0669
-99.9990 ancol jurangmangu 0.0670
-99.9990 ancol kali_deres 0.0669
-99.9990 ancol kampung_bandan 0.0657
-1.7572 ancol kapan_saja 1.8270
-99.9990 ancol karet 0.0669
-0.4403 ancol ke -1.7476
-99.9990 ancol kebayoran 0.0670
-99.9990 ancol kemayoran 0.0657
-1.7863 ancol kira-kira 1.8749
-99.9990 ancol klender 0.0962
-99.9990 ancol klender_baru 0.0657
-99.9990 ancol kramat 0.0657
-99.9990 ancol kranji 0.0669
-99.9990 ancol lenteng_agung 0.0645
-99.9990 ancol maja 0.0683
-99.9990 ancol mampang 0.0645
-99.9990 ancol mangga_besar 0.0645
-99.9990 ancol manggarai 0.0657
-1.7572 ancol mau -1.7083
-0.8527 ancol naik 1.8809
-1.5038 ancol naiknya 1.8777
-99.9990 ancol palmerah 0.0657
-99.9990 ancol parung_panjang 0.0670
-99.9990 ancol pasar_minggu 0.0696
-99.9990 ancol pasar_minggu_baru 0.0710
-99.9990 ancol pasar_senen 0.0657
-99.9990 ancol pesing 0.0670
-99.9990 ancol pondok_cina 0.0657
-99.9990 ancol pondok_jati 0.0682
-99.9990 ancol pondok_ranji 0.0669
-99.9990 ancol poris 0.0645
-99.9990 ancol rajawali 0.0633
-99.9990 ancol rangkas_bitung 0.0657
-99.9990 ancol rawa_buaya 0.0696
-99.9990 ancol rawa_buntu 0.0657
-1.7628 ancol sampai_di 3.7260
-99.9990 ancol sawah_besar 0.0622
-99.9990 ancol serpong 0.0645
-99.9990 ancol sudimara 0.0645
-99.9990 ancol sudirman 0.0657
-99.9990 ancol taman_kota 0.0696
-99.9990 ancol tanah_abang 0.0633
-99.9990 ancol tanah_tinggi 0.0669
-99.9990 ancol tangerang 0.0682
-99.9990 ancol tanjung_barat 0.0633
-99.9990 ancol tanjung_priok 0.0633
-99.9990 ancol tebet 0.0622
-99.9990 ancol tenjo 0.0657
-99.9990 ancol tigaraksa 0.0645
-1.8048 ancol transit 1.8746
-99.9990 ancol universitas_indonesia 0.0633
-99.9990 ancol universitas_pancasila 0.0696
-0.5469 angke </s> 1.5298
-1.8100 angke ada 2.1852
-1.7553 angke dan 3.7070
-1.2763 angke dari 2.7318
-99.9990 angke jam 1.8921
-99.9990 angke jam_berapa 0.0063
-1.7496 angke kapan_saja 1.8270
-0.4328 angke ke -1.7476
-1.7788 angke kira-kira 1.8749
-1.7496 angke mau -1.7083
-0.8451 angke naik 1.8809
-1.4962 angke naiknya 1.8777
-1.7553 angke sampai_di 3.7260
-1.7972 angke transit 1.8746
-0.0985 apa </s> -0.0022
-2.5350 apa saja 1.5415
-0.7021 apa ya 0.0000
-2.8332 apa yang -1.7620
-0.5233 batu_ceper </s> 1.5298
-1.7864 batu_ceper ada 2.1852
-1.2526 batu_ceper dari 2.7318
-99.9990 batu_ceper jam 1.8921
-99.9990 batu_ceper jam_berapa 0.0063
-1.7260 batu_ceper kapan_saja 1.8270
-0.4303 batu_ceper ke -1.7265
-1.7551 batu_ceper kira-kira 1.8749
-0.8215 batu_ceper naik 1.8809
-1.4726 batu_ceper naiknya 1.8777
-1.7317 batu_ceper sampai_di 3.7260
-1.7736 batu_ceper transit 1.8746
-0.5545 bekasi </s> 1.5298
-1.8176 bekasi ada 2.1852
-99.9990 bekasi ancol 0.0657
-99.9990 bekasi angke 0.0669
-99.9990 bekasi batu_ceper 0.0710
-99.9990 bekasi bekasi 0.0657
-99.9990 bekasi bogor 0.0669
-99.9990 bekasi bojong_gede 0.0657
-99.9990 bekasi bojong_indah 0.0669
-99.9990 bekasi buaran 0.0669
-99.9990 bekasi cakung 0.0633
-99.9990 bekasi cawang 0.0645
-99.9990 bekasi cicayur 0.0645
-99.9990 bekasi cikini 0.0657
-99.9990 bekasi cikoya 0.0657
-99.9990 bekasi cilebut 0.0682
-99.9990 bekasi cilejit 0.0645
-99.9990 bekasi cipinang 0.0633
-99.9990 bekasi cisauk 0.0696
-99.9990 bekasi citayam 0.0633
-99.9990 bekasi citeras 0.0682
-1.7628 bekasi dan 3.7070
-1.1594 bekasi dari 2.6074
-99.9990 bekasi daru 0.0645
-99.9990 bekasi depok 0.0669
-99.9990 bekasi depok_baru 0.0696
-99.9990 bekasi duren_kalibata 0.0645
-99.9990 bekasi duri 0.0645
-99.9990 bekasi gambir 0.0657
-99.9990 bekasi gang_sentiong 0.0669
-99.9990 bekasi gondangdia 0.0696
-99.9990 bekasi grogol 0.0657
-99.9990 bekasi jakarta_kota 0.0622
-99.9990 bekasi jam 1.8921
-99.9990 bekasi jam_berapa 0.0063
-99.9990 bekasi jatinegara 0.0670
-99.9990 bekasi jayakarta 0.0670
-99.9990 bekasi juanda 0.0669
-99.9990 bekasi jurangmangu 0.0670
-99.9990 bekasi kali_deres 0.0669
-99.9990 bekasi kampung_bandan 0.0657
-1.7572 bekasi kapan_saja 1.8270
-99.9990 bekasi karet 0.0669
-0.4615 bekasi ke -1.7265
-99.9990 bekasi kebayoran 0.0670
-99.9990 bekasi kemayoran 0.0657
-1.7863 bekasi kira-kira 1.8749
-99.9990 bekasi klender 0.0962
-99.9990 bekasi klender_baru 0.0657
-99.9990 bekasi kramat 0.0657
-99.9990 bekasi kranji 0.0669
-99.9990 bekasi lenteng_agung 0.0645
-99.9990 bekasi maja 0.0683
-99.9990 bekasi mampang 0.0645
-99.9990 bekasi mangga_besar 0.0645
-99.9990 bekasi manggarai 0.0657
-1.7572 bekasi mau -1.7083
-0.8527 bekasi naik 1.8809
-1.5038 bekasi naiknya 1.8777
-99.9990 bekasi palmerah 0.0657
-99.9990 bekasi parung_panjang 0.0670
-99.9990 bekasi pasar_minggu 0.0696
-99.9990 bekasi pasar_minggu_baru 0.0710
-99.9990 bekasi pasar_senen 0.0657
-99.9990 bekasi pesing 0.0670
-99.9990 bekasi pondok_cina 0.0657
-99.9990 bekasi pondok_jati 0.0682
-99.9990 bekasi pondok_ranji 0.0669
-99.9990 bekasi poris 0.0645
-99.9990 bekasi rajawali 0.0633
-99.9990 bekasi rangkas_bitung 0.0657
-99.9990 bekasi rawa_buaya 0.0696
-99.9990 bekasi rawa_buntu 0.0657
-1.7628 bekasi sampai_di 3.7260
-99.9990 bekasi sawah_besar 0.0622
-99.9990 bekasi serpong 0.0645
-99.9990 bekasi sudimara 0.0645
-99.9990 bekasi sudirman 0.0657
-99.9990 bekasi taman_kota 0.0696
-99.9990 bekasi tanah_abang 0.0633
-99.9990 bekasi tanah_tinggi 0.0669
-99.9990 bekasi tangerang 0.0682
-99.9990 bekasi tanjung_barat 0.0633
-99.9990 bekasi tanjung_priok 0.0633
-99.9990 bekasi tebet 0.0622
-99.9990 bekasi tenjo 0.0657
-99.9990 bekasi tigaraksa 0.0645
-1.8048 bekasi transit 1.8746
-99.9990 bekasi universitas_indonesia 0.0633
-99.9990 bekasi universitas_pancasila 0.0696
-0.0000 berangkat dari -2.6583
-0.3138 berapa kereta -3.6697
-0.2887 berapa lama 0.0001
-0.0001 berikutnya berangkat 0.3169
-0.2946 bisa berangkat 0.3105
-2.1272 bisa ke 1.4557
-0.3210 bisa pergi -3.3828
-2.1272 bisa sampai_di 3.7260
-0.5469 bogor </s> 1.5298
-1.8100 bogor ada 2.1852
-99.9990 bogor ancol 0.0657
-99.9990 bogor angke 0.0669
-99.9990 bogor batu_ceper 0.0710
-99.9990 bogor bekasi 0.0657
-99.9990 bogor bogor 0.0669
-99.9990 bogor bojong_gede 0.0657
-99.9990 bogor bojong_indah 0.0669
-99.9990 bogor buaran 0.0669
-99.9990 bogor cakung 0.0633
-99.9990 bogor cawang 0.0645
-99.9990 bogor cicayur 0.0645
-99.9990 bogor cikini 0.0657
-99.9990 bogor cikoya 0.0657
-99.9990 bogor cilebut 0.0682
-99.9990 bogor cilejit 0.0645
-99.9990 bogor cipinang 0.0633
-99.9990 bogor cisauk 0.0696
-99.9990 bogor citayam 0.0633
-99.9990 bogor citeras 0.0682
-1.7553 bogor dan 3.7070
-1.1518 bogor dari 2.6074
-99.9990 bogor daru 0.0645
-99.9990 bogor depok 0.0669
-99.9990 bogor depok_baru 0.0696
-99.9990 bogor duren_kalibata 0.0645
-99.9990 bogor duri 0.0645
-99.9990 bogor gambir 0.0657
-99.9990 bogor gang_sentiong 0.0669
-99.9990 bogor gondangdia 0.0696
-99.9990 bogor grogol 0.0657
-99.9990 bogor jakarta_kota 0.0622
-99.9990 bogor jam 1.8921
-99.9990 bogor jam_berapa 0.0063
-99.9990 bogor jatinegara 0.0670
-99.9990 bogor jayakarta 0.0670
-99.9990 bogor juanda 0.0669
-99.9990 bogor jurangmangu 0.0670
-99.9990 bogor kali_deres 0.0669
-99.9990 bogor kampung_bandan 0.0657
-1.7496 bogor kapan_saja 1.8270
-99.9990 bogor karet 0.0669
-0.4762 bogor ke -1.7042
-99.9990 bogor kebayoran 0.0670
-99.9990 bogor kemayoran 0.0657
-1.7788 bogor kira-kira 1.8749
-99.9990 bogor klender 0.0962
-99.9990 bogor klender_baru 0.0657
-99.9990 bogor kramat 0.0657
-99.9990 bogor kranji 0.0669
-99.9990 bogor lenteng_agung 0.0645
-99.9990 bogor maja 0.0683
-99.9990 bogor mampang 0.0645
-99.9990 bogor mangga_besar 0.0645
-99.9990 bogor manggarai 0.0657
-1.7496 bogor mau -1.7083
-0.8451 bogor naik 1.8809
-1.4962 bogor naiknya 1.8777
-99.9990 bogor palmerah 0.0657
-99.9990 bogor parung_panjang 0.0670
-99.9990 bogor pasar_minggu 0.0696
-99.9990 bogor pasar_minggu_baru 0.0710
-99.9990 bogor pasar_senen 0.0657
-99.9990 bogor pesing 0.0670
-99.9990 bogor pondok_cina 0.0657
-99.9990 bogor pondok_jati 0.0682
-99.9990 bogor pondok_ranji 0.0669
-99.9990 bogor poris 0.0645
-99.9990 bogor rajawali 0.0633
-99.9990 bogor rangkas_bitung 0.0657
-99.9990 bogor rawa_buaya 0.0696
-99.9990 bogor rawa_buntu 0.0657
-1.7553 bogor sampai_di 3.7260
-99.9990 bogor sawah_besar 0.0622
-99.9990 bogor serpong 0.0645
-99.9990 bogor sudimara 0.0645
-99.9990 bogor sudirman 0.0657
-99.9990 bogor taman_kota 0.0696
-99.9990 bogor tanah_abang 0.0633
-99.9990 bogor tanah_tinggi 0.0669
-99.9990 bogor tangerang 0.0682
-99.9990 bogor tanjung_barat 0.0633
-99.9990 bogor tanjung_priok 0.0633
-99.9990 bogor tebet 0.0622
-99.9990 bogor tenjo 0.0657
-99.9990 bogor tigaraksa 0.0645
-1.7972 bogor transit 1.8746
-99.9990 bogor universitas_indonesia 0.0633
-99.9990 bogor universitas_pancasila 0.0696
-0.5545 bojong_gede </s> 1.5298
-1.8176 bojong_gede ada 2.1852
-99.9990 bojong_gede ancol 0.0657
-99.9990 bojong_gede angke 0.0669
-99.9990 bojong_gede batu_ceper 0.0710
-99.9990 bojong_gede bekasi 0.0657
-99.9990 bojong_gede bogor 0.0669
-99.9990 bojong_gede bojong_gede 0.0657
-99.9990 bojong_gede bojong_indah 0.0669
-99.9990 bojong_gede buaran 0.0669
-99.9990 bojong_gede cakung 0.0633
-99.9990 bojong_gede cawang 0.0645
-99.9990 bojong_gede cicayur 0.0645
-99.9990 bojong_gede cikini 0.0657
-99.9990 bojong_gede cikoya 0.0657
-99.9990 bojong_gede cilebut 0.0682
-99.9990 bojong_gede cilejit 0.0645
-99.9990 bojong_gede cipinang 0.0633
-99.9990 bojong_gede cisauk 0.0696
-99.9990 bojong_gede citayam 0.0633
-99.9990 bojong_gede citeras 0.0682
-1.7628 bojong_gede dan 3.7070
-1.1594 bojong_gede dari 2.6074
-99.9990 bojong_gede daru 0.0645
-99.9990 bojong_gede depok 0.0669
-99.9990 bojong_gede depok_baru 0.0696
-99.9990 bojong_gede duren_kalibata 0.0645
-99.9990 bojong_gede duri 0.0645
-99.9990 bojong_gede gambir 0.0657
-99.9990 bojong_gede gang_sentiong 0.0669
-99.9990 bojong_gede gondangdia 0.0696
-99.9990 bojong_gede grogol 0.0657
-99.9990 bojong_gede jakarta_kota 0.0622
-99.9990 bojong_gede jam 1.8921
-99.9990 bojong_gede jam_berapa 0.0063
-99.9990 bojong_gede jatinegara 0.0670
-99.9990 bojong_gede jayakarta 0.0670
-99.9990 bojong_gede juanda 0.0669
-99.9990 bojong_gede jurangmangu 0.0670
-99.9990 bojong_gede kali_deres 0.0669
-99.9990 bojong_gede kampung_bandan 0.0657
-1.7572 bojong_gede kapan_saja 1.8270
-99.9990 bojong_gede karet 0.0669
-0.4615 bojong_gede ke -1.7265
-99.9990 bojong_gede kebayoran 0.0670
-99.9990 bojong_gede kemayoran 0.0657
-1.7863 bojong_gede kira-kira 1.8749
-99.9990 bojong_gede klender 0.0962
-99.9990 bojong_gede klender_baru 0.0657
-99.9990 bojong_gede kramat 0.0657
-99.9990 bojong_gede kranji 0.0669
-99.9990 bojong_gede lenteng_agung 0.0645
-99.9990 bojong_gede maja 0.0683
-99.9990 bojong_gede mampang 0.0645
-99.9990 bojong_gede mangga_besar 0.0645
-99.9990 bojong_gede manggarai 0.0657
-1.7572 bojong_gede mau -1.7083
-0.8527 bojong_gede naik 1.8809
-1.5038 bojong_gede naiknya 1.8777
-99.9990 bojong_gede palmerah 0.0657
-99.9990 bojong_gede parung_panjang 0.0670
-99.9990 bojong_gede pasar_minggu 0.0696
-99.9990 bojong_gede pasar_minggu_baru 0.0710
-99.9990 bojong_gede pasar_senen 0.0657
-99.9990 bojong_gede pesing 0.0670
-99.9990 bojong_gede pondok_cina 0.0657
-99.9990 bojong_gede pondok_jati 0.0682
-99.9990 bojong_gede pondok_ranji 0.0669
-99.9990 bojong_gede poris 0.0645
-99.9990 bojong_gede rajawali 0.0633
-99.9990 bojong_gede rangkas_bitung 0.0657
-99.9990 bojong_gede rawa_buaya 0.0696
-99.9990 bojong_gede rawa_buntu 0.0657
-1.7628 bojong_gede sampai_di 3.7260
-99.9990 bojong_gede sawah_besar 0.0622
-99.9990 bojong_gede serpong 0.0645
-99.9990 bojong_gede sudimara 0.0645
-99.9990 bojong_gede sudirman 0.0657
-99.9990 bojong_gede taman_kota 0.0696
-99.9990 bojong_gede tanah_abang 0.0633
-99.9990 bojong_gede tanah_tinggi 0.0669
-99.9990 bojong_gede tangerang 0.0682
-99.9990 bojong_gede tanjung_barat 0.0633
-99.9990 bojong_gede tanjung_priok 0.0633
-99.9990 bojong_gede tebet 0.0622
-99.9990 bojong_gede tenjo 0.0657
-99.9990 bojong_gede tigaraksa 0.0645
-1.8048 bojong_gede transit 1.8746
-99.9990 bojong_gede universitas_indonesia 0.0633
-99.9990 bojong_gede universitas_pancasila 0.0696
-0.5469 bojong_indah </s> 1.5298
-1.8100 bojong_indah ada 2.1852
-99.9990 bojong_indah ancol 0.0657
-99.9990 bojong_indah angke 0.0669
-99.9990 bojong_indah batu_ceper 0.0710
-99.9990 bojong_indah bekasi 0.0657
-99.9990 bojong_indah bogor 0.0669
-99.9990 bojong_indah bojong_gede 0.0657
-99.9990 bojong_indah bojong_indah 0.0669
-99.9990 bojong_indah buaran 0.0669
-99.9990 bojong_indah cakung 0.0633
-99.9990 bojong_indah cawang 0.0645
-99.9990 bojong_indah cicayur 0.0645
-99.9990 bojong_indah cikini 0.0657
-99.9990 bojong_indah cikoya 0.0657
-99.9990 bojong_indah cilebut 0.0682
-99.9990 bojong_indah cilejit 0.0645
-99.9990 bojong_indah cipinang 0.0633
-99.9990 bojong_indah cisauk 0.0696
-99.9990 bojong_indah citayam 0.0633
-99.9990 bojong_indah citeras 0.0682
-1.7553 bojong_indah dan 3.7070
-1.1518 bojong_indah dari 2.6074
-99.9990 bojong_indah daru 0.0645
-99.9990 bojong_indah depok 0.0669
-99.9990 bojong_indah depok_baru 0.0696
-99.9990 bojong_indah duren_kalibata 0.0645
-99.9990 bojong_indah duri 0.0645
-99.9990 bojong_indah gambir 0.0657
-99.9990 bojong_indah gang_sentiong 0.0669
-99.9990 bojong_indah gondangdia 0.0696
-99.9990 bojong_indah grogol 0.0657
-99.9990 bojong_indah jakarta_kota 0.0622
-99.9990 bojong_indah jam 1.8921
-99.9990 bojong_indah jam_berapa 0.0063
-99.9990 bojong_indah jatinegara 0.0670
-99.9990 bojong_indah jayakarta 0.0670
-99.9990 bojong_indah juanda 0.0669
-99.9990 bojong_indah jurangmangu 0.0670
-99.9990 bojong_indah kali_deres 0.0669
-99.9990 bojong_indah kampung_bandan 0.0657
-1.7496 bojong_indah kapan_saja 1.8270
-99.9990 bojong_indah karet 0.0669
-0.4540 bojong_indah ke -1.7265
-99.9990 bojong_indah kebayoran 0.0670
-99.9990 bojong_indah kemayoran 0.0657
-1.7788 bojong_indah kira-kira 1.8749
-99.9990 bojong_indah klender 0.0962
-99.9990 bojong_indah klender_baru 0.0657
-99.9990 bojong_indah kramat 0.0657
-99.9990 bojong_indah kranji 0.0669
-99.9990 bojong_indah lenteng_agung 0.0645
-99.9990 bojong_indah maja 0.0683
-99.9990 bojong_indah mampang 0.0645
-99.9990 bojong_indah mangga_besar 0.0645
-99.9990 bojong_indah manggarai 0.0657
-1.7496 bojong_indah mau -1.7083
-0.8451 bojong_indah naik 1.8809
-1.4962 bojong_indah naiknya 1.8777
-99.9990 bojong_indah palmerah 0.0657
-99.9990 bojong_indah parung_panjang 0.0670
-99.9990 bojong_indah pasar_minggu 0.0696
-99.9990 bojong_indah pasar_minggu_baru 0.0710
-99.9990 bojong_indah pasar_senen 0.0657
-99.9990 bojong_indah pesing 0.0670
-99.9990 bojong_indah pondok_cina 0.0657
-99.9990 bojong_indah pondok_jati 0.0682
-99.9990 bojong_indah pondok_ranji 0.0669
-99.9990 bojong_indah poris 0.0645
-99.9990 bojong_indah rajawali 0.0633
-99.9990 bojong_indah rangkas_bitung 0.0657
-99.9990 bojong_indah rawa_buaya 0.0696
-99.9990 bojong_indah rawa_buntu 0.0657
-99.9990 bojong_indah sawah_besar 0.0622
-99.9990 bojong_indah serpong 0.0645
-99.9990 bojong_indah sudimara 0.0645
-99.9990 bojong_indah sudirman 0.0657
-99.9990 bojong_indah taman_kota 0.0696
-99.9990 bojong_indah tanah_abang 0.0633
-99.9990 bojong_indah tanah_tinggi 0.0669
-99.9990 bojong_indah tangerang 0.0682
-99.9990 bojong_indah tanjung_barat 0.0633
-99.9990 bojong_indah tanjung_priok 0.0633
-99.9990 bojong_indah tebet 0.0622
-99.9990 bojong_indah tenjo 0.0657
-99.9990 bojong_indah tigaraksa 0.0645
-1.7972 bojong_indah transit 1.8746
-99.9990 bojong_indah universitas_indonesia 0.0633
-99.9990 bojong_indah universitas_pancasila 0.0696
-0.5469 buaran </s> 1.5298
-1.8100 buaran ada 2.1852
-99.9990 buaran ancol 0.0657
-99.9990 buaran angke 0.0669
-99.9990 buaran batu_ceper 0.0710
-99.9990 buaran bekasi 0.0657
-99.9990 buaran bogor 0.0669
-99.9990 buaran bojong_gede 0.0657
-99.9990 buaran bojong_indah 0.0669
-99.9990 buaran buaran 0.0669
-99.9990 buaran cakung 0.0633
-99.9990 buaran cawang 0.0645
-99.9990 buaran cicayur 0.0645
-99.9990 buaran cikini 0.0657
-99.9990 buaran cikoya 0.0657
-99.9990 buaran cilebut 0.0682
-99.9990 buaran cilejit 0.0645
-99.9990 buaran cipinang 0.0633
-99.9990 buaran cisauk 0.0696
-99.9990 buaran citayam 0.0633
-99.9990 buaran citeras 0.0682
-1.7553 buaran dan 3.7070
-1.1518 buaran dari 2.6074
-99.9990 buaran daru 0.0645
-99.9990 buaran depok 0.0669
-99.9990 buaran depok_baru 0.0696
-99.9990 buaran duren_kalibata 0.0645
-99.9990 buaran duri 0.0645
-99.9990 buaran gambir 0.0657
-99.9990 buaran gang_sentiong 0.0669
-99.9990 buaran gondangdia 0.0696
-99.9990 buaran grogol 0.0657
-99.9990 buaran jakarta_kota 0.0622
-99.9990 buaran jam 1.8921
-99.9990 buaran jam_berapa 0.0063
-99.9990 buaran jatinegara 0.0670
-99.9990 buaran jayakarta 0.0670
-99.9990 buaran juanda 0.0669
-99.9990 buaran jurangmangu 0.0670
-99.9990 buaran kali_deres 0.0669
-99.9990 buaran kampung_bandan 0.0657
-1.7496 buaran kapan_saja 1.8270
-99.9990 buaran karet 0.0669
-0.4762 buaran ke -1.7042
-99.9990 buaran kebayoran 0.0670
-99.9990 buaran kemayoran 0.0657
-1.7788 buaran kira-kira 1.8749
-99.9990 buaran klender 0.0962
-99.9990 buaran klender_baru 0.0657
-99.9990 buaran kramat 0.0657
-99.9990 buaran kranji 0.0669
-99.9990 buaran lenteng_agung 0.0645
-99.9990 buaran maja 0.0683
-99.9990 buaran mampang 0.0645
-99.9990 buaran mangga_besar 0.0645
-99.9990 buaran manggarai 0.0657
-1.7496 buaran mau -1.7083
-0.8451 buaran naik 1.8809
-1.4962 buaran naiknya 1.8777
-99.9990 buaran palmerah 0.0657
-99.9990 buaran parung_panjang 0.0670
-99.9990 buaran pasar_minggu 0.0696
-99.9990 buaran pasar_minggu_baru 0.0710
-99.9990 buaran pasar_senen 0.0657
-99.9990 buaran pesing 0.0670
-99.9990 buaran pondok_cina 0.0657
-99.9990 buaran pondok_jati 0.0682
-99.9990 buaran pondok_ranji 0.0669
-99.9990 buaran poris 0.0645
-99.9990 buaran rajawali 0.0633
-99.9990 buaran rangkas_bitung 0.0657
-99.9990 buaran rawa_buaya 0.0696
-99.9990 buaran rawa_buntu 0.0657
-1.7553 buaran sampai_di 3.7260
-99.9990 buaran sawah_besar 0.0622
-99.9990 buaran serpong 0.0645
-99.9990 buaran sudimara 0.0645
-99.9990 buaran sudirman 0.0657
-99.9990 buaran taman_kota 0.0696
-99.9990 buaran tanah_abang 0.0633
-99.9990 buaran tanah_tinggi 0.0669
-99.9990 buaran tangerang 0.0682
-99.9990 buaran tanjung_barat 0.0633
-99.9990 buaran tanjung_priok 0.0633
-99.9990 buaran tebet 0.0622
-99.9990 buaran tenjo 0.0657
-99.9990 buaran tigaraksa 0.0645
-1.7972 buaran transit 1.8746
-99.9990 buaran universitas_indonesia 0.0633
-99.9990 buaran universitas_pancasila 0.0696
-0.5692 cakung </s> 1.5298
-1.8323 cakung ada 2.1852
-99.9990 cakung ancol 0.0657
-99.9990 cakung angke 0.0669
-99.9990 cakung batu_ceper 0.0710
-99.9990 cakung bekasi 0.0657
-99.9990 cakung bogor 0.0669
-99.9990 cakung bojong_gede 0.0657
-99.9990 cakung bojong_indah 0.0669
-99.9990 cakung buaran 0.0669
-99.9990 cakung cakung 0.0633
-99.9990 cakung cawang 0.0645
-99.9990 cakung cicayur 0.0645
-99.9990 cakung cikini 0.0657
-99.9990 cakung cikoya 0.0657
-99.9990 cakung cilebut 0.0682
-99.9990 cakung cilejit 0.0645
-99.9990 cakung cipinang 0.0633
-99.9990 cakung cisauk 0.0696
-99.9990 cakung citayam 0.0633
-99.9990 cakung citeras 0.0682
-1.7776 cakung dan 3.7070
-1.2986 cakung dari 2.7318
-99.9990 cakung daru 0.0645
-99.9990 cakung depok 0.0669
-99.9990 cakung depok_baru 0.0696
-99.9990 cakung duren_kalibata 0.0645
-99.9990 cakung duri 0.0645
-99.9990 cakung gambir 0.0657
-99.9990 cakung gang_sentiong 0.0669
-99.9990 cakung gondangdia 0.0696
-99.9990 cakung grogol 0.0657
-99.9990 cakung jakarta_kota 0.0622
-99.9990 cakung jam 1.8921
-99.9990 cakung jam_berapa 0.0063
-99.9990 cakung jatinegara 0.0670
-99.9990 cakung jayakarta 0.0670
-99.9990 cakung juanda 0.0669
-99.9990 cakung jurangmangu 0.0670
-99.9990 cakung kali_deres 0.0669
-99.9990 cakung kampung_bandan 0.0657
-1.7719 cakung kapan_saja 1.8270
-99.9990 cakung karet 0.0669
-0.4156 cakung ke -1.7871
-99.9990 cakung kebayoran 0.0670
-99.9990 cakung kemayoran 0.0657
-1.8011 cakung kira-kira 1.8749
-99.9990 cakung klender 0.0962
-99.9990 cakung klender_baru 0.0657
-99.9990 cakung kramat 0.0657
-99.9990 cakung kranji 0.0669
-99.9990 cakung lenteng_agung 0.0645
-99.9990 cakung maja 0.0683
-99.9990 cakung mampang 0.0645
-99.9990 cakung mangga_besar 0.0645
-99.9990 cakung manggarai 0.0657
-1.7719 cakung mau -1.7083
-0.8674 cakung naik 1.8809
-1.5185 cakung naiknya 1.8777
-99.9990 cakung palmerah 0.0657
-99.9990 cakung parung_panjang 0.0670
-99.9990 cakung pasar_minggu 0.0696
-99.9990 cakung pasar_minggu_baru 0.0710
-99.9990 cakung pasar_senen 0.0657
-99.9990 cakung pesing 0.0670
-99.9990 cakung pondok_cina 0.0657
-99.9990 cakung pondok_jati 0.0682
-99.9990 cakung pondok_ranji 0.0669
-99.9990 cakung poris 0.0645
-99.9990 cakung rajawali 0.0633
-99.9990 cakung rangkas_bitung 0.0657
-99.9990 cakung rawa_buaya 0.0696
-99.9990 cakung rawa_buntu 0.0657
-1.7776 cakung sampai_di 3.7260
-99.9990 cakung sawah_besar 0.0622
-99.9990 cakung serpong 0.0645
-99.9990 cakung sudimara 0.0645
-99.9990 cakung sudirman 0.0657
-99.9990 cakung taman_kota 0.0696
-99.9990 cakung tanah_abang 0.0633
-99.9990 cakung tanah_tinggi 0.0669
-99.9990 cakung tangerang 0.0682
-99.9990 cakung tanjung_barat 0.0633
-99.9990 cakung tanjung_priok 0.0633
-99.9990 cakung tebet 0.0622
-99.9990 cakung tenjo 0.0657
-99.9990 cakung tigaraksa 0.0645
-1.8195 cakung transit 1.8746
-99.9990 cakung universitas_indonesia 0.0633
-99.9990 cakung universitas_pancasila 0.0696
-0.5619 cawang </s> 1.5298
-1.8250 cawang ada 2.1852
-99.9990 cawang ancol 0.0657
-99.9990 cawang angke 0.0669
-99.9990 cawang batu_ceper 0.0710
-99.9990 cawang bekasi 0.0657
-99.9990 cawang bogor 0.0669
-99.9990 cawang bojong_gede 0.0657
-99.9990 cawang bojong_indah 0.0669
-99.9990 cawang buaran 0.0669
-99.9990 cawang cakung 0.0633
-99.9990 cawang cawang 0.0645
-99.9990 cawang cicayur 0.0645
-99.9990 cawang cikini 0.0657
-99.9990 cawang cikoya 0.0657
-99.9990 cawang cilebut 0.0682
-99.9990 cawang cilejit 0.0645
-99.9990 cawang cipinang 0.0633
-99.9990 cawang cisauk 0.0696
-99.9990 cawang citayam 0.0633
-99.9990 cawang citeras 0.0682
-1.7703 cawang dan 3.7070
-1.4664 cawang dari -0.8191
-99.9990 cawang daru 0.0645
-99.9990 cawang depok 0.0669
-99.9990 cawang depok_baru 0.0696
-99.9990 cawang duren_kalibata 0.0645
-99.9990 cawang duri 0.0645
-99.9990 cawang gambir 0.0657
-99.9990 cawang gang_sentiong 0.0669
-99.9990 cawang gondangdia 0.0696
-99.9990 cawang grogol 0.0657
-99.9990 cawang jakarta_kota 0.0622
-99.9990 cawang jam 1.8921
-99.9990 cawang jam_berapa 0.0063
-99.9990 cawang jatinegara 0.0670
-99.9990 cawang jayakarta 0.0670
-99.9990 cawang juanda 0.0669
-99.9990 cawang jurangmangu 0.0670
-99.9990 cawang kali_deres 0.0669
-99.9990 cawang kampung_bandan 0.0657
-1.7646 cawang kapan_saja 1.8270
-99.9990 cawang karet 0.0669
-0.4083 cawang ke -1.7871
-99.9990 cawang kebayoran 0.0670
-99.9990 cawang kemayoran 0.0657
-1.7938 cawang kira-kira 1.8749
-99.9990 cawang klender 0.0962
-99.9990 cawang klender_baru 0.0657
-99.9990 cawang kramat 0.0657
-99.9990 cawang kranji 0.0669
-99.9990 cawang lenteng_agung 0.0645
-99.9990 cawang maja 0.0683
-99.9990 cawang mampang 0.0645
-99.9990 cawang mangga_besar 0.0645
-99.9990 cawang manggarai 0.0657
-1.7646 cawang mau -1.7083
-0.8601 cawang naik 1.8809
-1.5112 cawang naiknya 1.8777
-99.9990 cawang palmerah 0.0657
-99.9990 cawang parung_panjang 0.0670
-99.9990 cawang pasar_minggu 0.0696
-99.9990 cawang pasar_minggu_baru 0.0710
-99.9990 cawang pasar_senen 0.0657
-99.9990 cawang pesing 0.0670
-99.9990 cawang pondok_cina 0.0657
-99.9990 cawang pondok_jati 0.0682
-99.9990 cawang pondok_ranji 0.0669
-99.9990 cawang poris 0.0645
-99.9990 cawang rajawali 0.0633
-99.9990 cawang rangkas_bitung 0.0657
-99.9990 cawang rawa_buaya 0.0696
-99.9990 cawang rawa_buntu 0.0657
-1.7703 cawang sampai_di 3.7260
-99.9990 cawang sawah_besar 0.0622
-99.9990 cawang serpong 0.0645
-99.9990 cawang sudimara 0.0645
-99.9990 cawang sudirman 0.0657
-99.9990 cawang taman_kota 0.0696
-99.9990 cawang tanah_abang 0.0633
-99.9990 cawang tanah_tinggi 0.0669
-99.9990 cawang tangerang 0.0682
-99.9990 cawang tanjung_barat 0.0633
-99.9990 cawang tanjung_priok 0.0633
-99.9990 cawang tebet 0.0622
-99.9990 cawang tenjo 0.0657
-99.9990 cawang tigaraksa 0.0645
-1.8122 cawang transit 1.8746
-99.9990 cawang universitas_indonesia 0.0633
-99.9990 cawang universitas_pancasila 0.0696
-0.5619 cicayur </s> 1.5298
-1.8250 cicayur ada 2.1852
-99.9990 cicayur ancol 0.0657
-99.9990 cicayur angke 0.0669
-99.9990 cicayur batu_ceper 0.0710
-99.9990 cicayur bekasi 0.0657
-99.9990 cicayur bogor 0.0669
-99.9990 cicayur bojong_gede 0.0657
-99.9990 cicayur bojong_indah 0.0669
-99.9990 cicayur buaran 0.0669
-99.9990 cicayur cakung 0.0633
-99.9990 cicayur cawang 0.0645
-99.9990 cicayur cicayur 0.0645
-99.9990 cicayur cikini 0.0657
-99.9990 cicayur cikoya 0.0657
-99.9990 cicayur cilebut 0.0682
-99.9990 cicayur cilejit 0.0645
-99.9990 cicayur cipinang 0.0633
-99.9990 cicayur cisauk 0.0696
-99.9990 cicayur citayam 0.0633
-99.9990 cicayur citeras 0.0682
-1.7703 cicayur dan 3.7070
-1.1668 cicayur dari 2.6074
-99.9990 cicayur daru 0.0645
-99.9990 cicayur depok 0.0669
-99.9990 cicayur depok_baru 0.0696
-99.9990 cicayur duren_kalibata 0.0645
-99.9990 cicayur duri 0.0645
-99.9990 cicayur gambir 0.0657
-99.9990 cicayur gang_sentiong 0.0669
-99.9990 cicayur gondangdia 0.0696
-99.9990 cicayur grogol 0.0657
-99.9990 cicayur jakarta_kota 0.0622
-99.9990 cicayur jam 1.8921
-99.9990 cicayur jam_berapa 0.0063
-99.9990 cicayur jatinegara 0.0670
-99.9990 cicayur jayakarta 0.0670
-99.9990 cicayur juanda 0.0669
-99.9990 cicayur jurangmangu 0.0670
-99.9990 cicayur kali_deres 0.0669
-99.9990 cicayur kampung_bandan 0.0657
-1.7646 cicayur kapan_saja 1.8270
-99.9990 cicayur karet 0.0669
-0.4478 cicayur ke -1.7476
-99.9990 cicayur kebayoran 0.0670
-99.9990 cicayur kemayoran 0.0657
-1.7938 cicayur kira-kira 1.8749
-99.9990 cicayur klender 0.0962
-99.9990 cicayur klender_baru 0.0657
-99.9990 cicayur kramat 0.0657
-99.9990 cicayur kranji 0.0669
-99.9990 cicayur lenteng_agung 0.0645
-99.9990 cicayur maja 0.0683
-99.9990 cicayur mampang 0.0645
-99.9990 cicayur mangga_besar 0.0645
-99.9990 cicayur manggarai 0.0657
-1.7646 cicayur mau -1.7083
-0.8601 cicayur naik 1.8809
-1.5112 cicayur naiknya 1.8777
-99.9990 cicayur palmerah 0.0657
-99.9990 cicayur parung_panjang 0.0670
-99.9990 cicayur pasar_minggu 0.0696
-99.9990 cicayur pasar_minggu_baru 0.0710
-99.9990 cicayur pasar_senen 0.0657
-99.9990 cicayur pesing 0.0670
-99.9990 cicayur pondok_cina 0.0657
-99.9990 cicayur pondok_jati 0.0682
-99.9990 cicayur pondok_ranji 0.0669
-99.9990 cicayur poris 0.0645
-99.9990 cicayur rajawali 0.0633
-99.9990 cicayur rangkas_bitung 0.0657
-99.9990 cicayur rawa_buaya 0.0696
-99.9990 cicayur rawa_buntu 0.0657
-1.7703 cicayur sampai_di 3.7260
-99.9990 cicayur sawah_besar 0.0622
-99.9990 cicayur serpong 0.0645
-99.9990 cicayur sudimara 0.0645
-99.9990 cicayur sudirman 0.0657
-99.9990 cicayur taman_kota 0.0696
-99.9990 cicayur tanah_abang 0.0633
-99.9990 cicayur tanah_tinggi 0.0669
-99.9990 cicayur tangerang 0.0682
-99.9990 cicayur tanjung_barat 0.0633
-99.9990 cicayur tanjung_priok 0.0633
-99.9990 cicayur tebet 0.0622
-99.9990 cicayur tenjo 0.0657
-99.9990 cicayur tigaraksa 0.0645
-1.8122 cicayur transit 1.8746
-99.9990 cicayur universitas_indonesia 0.0633
-99.9990 cicayur universitas_pancasila 0.0696
-0.5545 cikini </s> 1.5298
-1.8176 cikini ada 2.1852
-99.9990 cikini ancol 0.0657
-99.9990 cikini angke 0.0669
-99.9990 cikini batu_ceper 0.0710
-99.9990 cikini bekasi 0.0657
-99.9990 cikini bogor 0.0669
-99.9990 cikini bojong_gede 0.0657
-99.9990 cikini bojong_indah 0.0669
-99.9990 cikini buaran 0.0669
-99.9990 cikini cakung 0.0633
-99.9990 cikini cawang 0.0645
-99.9990 cikini cicayur 0.0645
-99.9990 cikini cikini 0.0657
-99.9990 cikini cikoya 0.0657
-99.9990 cikini cilebut 0.0682
-99.9990 cikini cilejit 0.0645
-99.9990 cikini cipinang 0.0633
-99.9990 cikini cisauk 0.0696
-99.9990 cikini citayam 0.0633
-99.9990 cikini citeras 0.0682
-1.7628 cikini dan 3.7070
-1.2838 cikini dari 2.7318
-99.9990 cikini daru 0.0645
-99.9990 cikini depok 0.0669
-99.9990 cikini depok_baru 0.0696
-99.9990 cikini duren_kalibata 0.0645
-99.9990 cikini duri 0.0645
-99.9990 cikini gambir 0.0657
-99.9990 cikini gang_sentiong 0.0669
-99.9990 cikini gondangdia 0.0696
-99.9990 cikini grogol 0.0657
-99.9990 cikini jakarta_kota 0.0622
-99.9990 cikini jam 1.8921
-99.9990 cikini jam_berapa 0.0063
-99.9990 cikini jatinegara 0.0670
-99.9990 cikini jayakarta 0.0670
-99.9990 cikini juanda 0.0669
-99.9990 cikini jurangmangu 0.0670
-99.9990 cikini kali_deres 0.0669
-99.9990 cikini kampung_bandan 0.0657
-1.7572 cikini kapan_saja 1.8270
-99.9990 cikini karet 0.0669
-0.4403 cikini ke -1.7476
-99.9990 cikini kebayoran 0.0670
-99.9990 cikini kemayoran 0.0657
-1.7863 cikini kira-kira 1.8749
-99.9990 cikini klender 0.0962
-99.9990 cikini klender_baru 0.0657
-99.9990 cikini kramat 0.0657
-99.9990 cikini kranji 0.0669
-99.9990 cikini lenteng_agung 0.0645
-99.9990 cikini maja 0.0683
-99.9990 cikini mampang 0.0645
-99.9990 cikini mangga_besar 0.0645
-99.9990 cikini manggarai 0.0657
-1.7572 cikini mau -1.7083
-0.8527 cikini naik 1.8809
-1.5038 cikini naiknya 1.8777
-99.9990 cikini palmerah 0.0657
-99.9990 cikini parung_panjang 0.0670
-99.9990 cikini pasar_minggu 0.0696
-99.9990 cikini pasar_minggu_baru 0.0710
-99.9990 cikini pasar_senen 0.0657
-99.9990 cikini pesing 0.0670
-99.9990 cikini pondok_cina 0.0657
-99.9990 cikini pondok_jati 0.0682
-99.9990 cikini pondok_ranji 0.0669
-99.9990 cikini poris 0.0645
-99.9990 cikini rajawali 0.0633
-99.9990 cikini rangkas_bitung 0.0657
-99.9990 cikini rawa_buaya 0.0696
-99.9990 cikini rawa_buntu 0.0657
-1.7628 cikini sampai_di 3.7260
-99.9990 cikini sawah_besar 0.0622
-99.9990 cikini serpong 0.0645
-99.9990 cikini sudimara 0.0645
-99.9990 cikini sudirman 0.0657
-99.9990 cikini taman_kota 0.0696
-99.9990 cikini tanah_abang 0.0633
-99.9990 cikini tanah_tinggi 0.0669
-99.9990 cikini tangerang 0.0682
-99.9990 cikini tanjung_barat 0.0633
-99.9990 cikini tanjung_priok 0.0633
-99.9990 cikini tebet 0.0622
-99.9990 cikini tenjo 0.0657
-99.9990 cikini tigaraksa 0.0645
-1.8048 cikini transit 1.8746
-99.9990 cikini universitas_indonesia 0.0633
-99.9990 cikini universitas_pancasila 0.0696
-0.5545 cikoya </s> 1.5298
-1.8176 cikoya ada 2.1852
-99.9990 cikoya ancol 0.0657
-99.9990 cikoya angke 0.0669
-99.9990 cikoya batu_ceper 0.0710
-99.9990 cikoya bekasi 0.0657
-99.9990 cikoya bogor 0.0669
-99.9990 cikoya bojong_gede 0.0657
-99.9990 cikoya bojong_indah 0.0669
-99.9990 cikoya buaran 0.0669
-99.9990 cikoya cakung 0.0633
-99.9990 cikoya cawang 0.0645
-99.9990 cikoya cicayur 0.0645
-99.9990 cikoya cikini 0.0657
-99.9990 cikoya cikoya 0.0657
-99.9990 cikoya cilebut 0.0682
-99.9990 cikoya cilejit 0.0645
-99.9990 cikoya cipinang 0.0633
-99.9990 cikoya cisauk 0.0696
-99.9990 cikoya citayam 0.0633
-99.9990 cikoya citeras 0.0682
-1.7628 cikoya dan 3.7070
-1.2838 cikoya dari 2.7318
-99.9990 cikoya daru 0.0645
-99.9990 cikoya depok 0.0669
-99.9990 cikoya depok_baru 0.0696
-99.9990 cikoya duren_kalibata 0.0645
-99.9990 cikoya duri 0.0645
-99.9990 cikoya gambir 0.0657
-99.9990 cikoya gang_sentiong 0.0669
-99.9990 cikoya gondangdia 0.0696
-99.9990 cikoya grogol 0.0657
-99.9990 cikoya jakarta_kota 0.0622
-99.9990 cikoya jam 1.8921
-99.9990 cikoya jam_berapa 0.0063
-99.9990 cikoya jatinegara 0.0670
-99.9990 cikoya jayakarta 0.0670
-99.9990 cikoya juanda 0.0669
-99.9990 cikoya jurangmangu 0.0670
-99.9990 cikoya kali_deres 0.0669
-99.9990 cikoya kampung_bandan 0.0657
-1.7572 cikoya kapan_saja 1.8270
-99.9990 cikoya karet 0.0669
-0.4403 cikoya ke -1.7476
-99.9990 cikoya kebayoran 0.0670
-99.9990 cikoya kemayoran 0.0657
-1.7863 cikoya kira-kira 1.8749
-99.9990 cikoya klender 0.0962
-99.9990 cikoya klender_baru 0.0657
-99.9990 cikoya kramat 0.0657
-99.9990 cikoya kranji 0.0669
-99.9990 cikoya lenteng_agung 0.0645
-99.9990 cikoya maja 0.0683
-99.9990 cikoya mampang 0.0645
-99.9990 cikoya mangga_besar 0.0645
-99.9990 cikoya manggarai 0.0657
-1.7572 cikoya mau -1.7083
-0.8527 cikoya naik 1.8809
-1.5038 cikoya naiknya 1.8777
-99.9990 cikoya palmerah 0.0657
-99.9990 cikoya parung_panjang 0.0670
-99.9990 cikoya pasar_minggu 0.0696
-99.9990 cikoya pasar_minggu_baru 0.0710
-99.9990 cikoya pasar_senen 0.0657
-99.9990 cikoya pesing 0.0670
-99.9990 cikoya pondok_cina 0.0657
-99.9990 cikoya pondok_jati 0.0682
-99.9990 cikoya pondok_ranji 0.0669
-99.9990 cikoya poris 0.0645
-99.9990 cikoya rajawali 0.0633
-99.9990 cikoya rangkas_bitung 0.0657
-99.9990 cikoya rawa_buaya 0.0696
-99.9990 cikoya rawa_buntu 0.0657
-1.7628 cikoya sampai_di 3.7260
-99.9990 cikoya sawah_besar 0.0622
-99.9990 cikoya serpong 0.0645
-99.9990 cikoya sudimara 0.0645
-99.9990 cikoya sudirman 0.0657
-99.9990 cikoya taman_kota 0.0696
-99.9990 cikoya tanah_abang 0.0633
-99.9990 cikoya tanah_tinggi 0.0669
-99.9990 cikoya tangerang 0.0682
-99.9990 cikoya tanjung_barat 0.0633
-99.9990 cikoya tanjung_priok 0.0633
-99.9990 cikoya tebet 0.0622
-99.9990 cikoya tenjo 0.0657
-99.9990 cikoya tigaraksa 0.0645
-1.8048 cikoya transit 1.8746
-99.9990 cikoya universitas_indonesia 0.0633
-99.9990 cikoya universitas_pancasila 0.0696
-0.5392 cilebut </s> 1.5298
-1.8023 cilebut ada 2.1852
-99.9990 cilebut ancol 0.0657
-99.9990 cilebut angke 0.0669
-99.9990 cilebut batu_ceper 0.0710
-99.9990 cilebut bekasi 0.0657
-99.9990 cilebut bogor 0.0669
-99.9990 cilebut bojong_gede 0.0657
-99.9990 cilebut bojong_indah 0.0669
-99.9990 cilebut buaran 0.0669
-99.9990 cilebut cakung 0.0633
-99.9990 cilebut cawang 0.0645
-99.9990 cilebut cicayur 0.0645
-99.9990 cilebut cikini 0.0657
-99.9990 cilebut cikoya 0.0657
-99.9990 cilebut cilebut 0.0682
-99.9990 cilebut cilejit 0.0645
-99.9990 cilebut cipinang 0.0633
-99.9990 cilebut cisauk 0.0696
-99.9990 cilebut citayam 0.0633
-99.9990 cilebut citeras 0.0682
-1.7476 cilebut dan 3.7070
-1.2686 cilebut dari -0.9942
-99.9990 cilebut daru 0.0645
-99.9990 cilebut depok 0.0669
-99.9990 cilebut depok_baru 0.0696
-99.9990 cilebut duren_kalibata 0.0645
-99.9990 cilebut duri 0.0645
-99.9990 cilebut gambir 0.0657
-99.9990 cilebut gang_sentiong 0.0669
-99.9990 cilebut gondangdia 0.0696
-99.9990 cilebut grogol 0.0657
-99.9990 cilebut jakarta_kota 0.0622
-99.9990 cilebut jam 1.8921
-99.9990 cilebut jam_berapa 0.0063
-99.9990 cilebut jatinegara 0.0670
-99.9990 cilebut jayakarta 0.0670
-99.9990 cilebut juanda 0.0669
-99.9990 cilebut jurangmangu 0.0670
-99.9990 cilebut kali_deres 0.0669
-99.9990 cilebut kampung_bandan 0.0657
-1.7419 cilebut kapan_saja 1.8270
-99.9990 cilebut karet 0.0669
-0.4685 cilebut ke -1.7042
-99.9990 cilebut kebayoran 0.0670
-99.9990 cilebut kemayoran 0.0657
-1.7711 cilebut kira-kira 1.8749
-99.9990 cilebut klender 0.0962
-99.9990 cilebut klender_baru 0.0657
-99.9990 cilebut kramat 0.0657
-99.9990 cilebut kranji 0.0669
-99.9990 cilebut lenteng_agung 0.0645
-99.9990 cilebut maja 0.0683
-99.9990 cilebut mampang 0.0645
-99.9990 cilebut mangga_besar 0.0645
-99.9990 cilebut manggarai 0.0657
-1.7419 cilebut mau -1.7083
-0.8374 cilebut naik 1.8809
-1.4885 cilebut naiknya 1.8777
-99.9990 cilebut palmerah 0.0657
-99.9990 cilebut parung_panjang 0.0670
-99.9990 cilebut pasar_minggu 0.0696
-99.9990 cilebut pasar_minggu_baru 0.0710
-99.9990 cilebut pasar_senen 0.0657
-99.9990 cilebut pesing 0.0670
-99.9990 cilebut pondok_cina 0.0657
-99.9990 cilebut pondok_jati 0.0682
-99.9990 cilebut pondok_ranji 0.0669
-99.9990 cilebut poris 0.0645
-99.9990 cilebut rajawali 0.0633
-99.9990 cilebut rangkas_bitung 0.0657
-99.9990 cilebut rawa_buaya 0.0696
-99.9990 cilebut rawa_buntu 0.0657
-1.7476 cilebut sampai_di 3.7260
-99.9990 cilebut sawah_besar 0.0622
-99.9990 cilebut serpong 0.0645
-99.9990 cilebut sudimara 0.0645
-99.9990 cilebut sudirman 0.0657
-99.9990 cilebut taman_kota 0.0696
-99.9990 cilebut tanah_abang 0.0633
-99.9990 cilebut tanah_tinggi 0.0669
-99.9990 cilebut tangerang 0.0682
-99.9990 cilebut tanjung_barat 0.0633
-99.9990 cilebut tanjung_priok 0.0633
-99.9990 cilebut tebet 0.0622
-99.9990 cilebut tenjo 0.0657
-99.9990 cilebut tigaraksa 0.0645
-1.7895 cilebut transit 1.8746
-99.9990 cilebut universitas_indonesia 0.0633
-99.9990 cilebut universitas_pancasila 0.0696
-0.5619 cilejit </s> 1.5298
-1.8250 cilejit ada 2.1852
-99.9990 cilejit ancol 0.0657
-99.9990 cilejit angke 0.0669
-99.9990 cilejit batu_ceper 0.0710
-99.9990 cilejit bekasi 0.0657
-99.9990 cilejit bogor 0.0669
-99.9990 cilejit bojong_gede 0.0657
-99.9990 cilejit bojong_indah 0.0669
-99.9990 cilejit buaran 0.0669
-99.9990 cilejit cakung 0.0633
-99.9990 cilejit cawang 0.0645
-99.9990 cilejit cicayur 0.0645
-99.9990 cilejit cikini 0.0657
-99.9990 cilejit cikoya 0.0657
-99.9990 cilejit cilebut 0.0682
-99.9990 cilejit cilejit 0.0645
-99.9990 cilejit cipinang 0.0633
-99.9990 cilejit cisauk 0.0696
-99.9990 cilejit citayam 0.0633
-99.9990 cilejit citeras 0.0682
-1.7703 cilejit dan 3.7070
-1.1668 cilejit dari 2.6074
-99.9990 cilejit daru 0.0645
-99.9990 cilejit depok 0.0669
-99.9990 cilejit depok_baru 0.0696
-99.9990 cilejit duren_kalibata 0.0645
-99.9990 cilejit duri 0.0645
-99.9990 cilejit gambir 0.0657
-99.9990 cilejit gang_sentiong 0.0669
-99.9990 cilejit gondangdia 0.0696
-99.9990 cilejit grogol 0.0657
-99.9990 cilejit jakarta_kota 0.0622
-99.9990 cilejit jam 1.8921
-99.9990 cilejit jam_berapa 0.0063
-99.9990 cilejit jatinegara 0.0670
-99.9990 cilejit jayakarta 0.0670
-99.9990 cilejit juanda 0.0669
-99.9990 cilejit jurangmangu 0.0670
-99.9990 cilejit kali_deres 0.0669
-99.9990 cilejit kampung_bandan 0.0657
-1.7646 cilejit kapan_saja 1.8270
-99.9990 cilejit karet 0.0669
-0.4478 cilejit ke -1.7476
-99.9990 cilejit kebayoran 0.0670
-99.9990 cilejit kemayoran 0.0657
-1.7938 cilejit kira-kira 1.8749
-99.9990 cilejit klender 0.0962
-99.9990 cilejit klender_baru 0.0657
-99.9990 cilejit kramat 0.0657
-99.9990 cilejit kranji 0.0669
-99.9990 cilejit lenteng_agung 0.0645
-99.9990 cilejit maja 0.0683
-99.9990 cilejit mampang 0.0645
-99.9990 cilejit mangga_besar 0.0645
-99.9990 cilejit manggarai 0.0657
-1.7646 cilejit mau -1.7083
-0.8601 cilejit naik 1.8809
-1.5112 cilejit naiknya 1.8777
-99.9990 cilejit palmerah 0.0657
-99.9990 cilejit parung_panjang 0.0670
-99.9990 cilejit pasar_minggu 0.0696
-99.9990 cilejit pasar_minggu_baru 0.0710
-99.9990 cilejit pasar_senen 0.0657
-99.9990 cilejit pesing 0.0670
-99.9990 cilejit pondok_cina 0.0657
-99.9990 cilejit pondok_jati 0.0682
-99.9990 cilejit pondok_ranji 0.0669
-99.9990 cilejit poris 0.0645
-99.9990 cilejit rajawali 0.0633
-99.9990 cilejit rangkas_bitung 0.0657
-99.9990 cilejit rawa_buaya 0.0696
-99.9990 cilejit rawa_buntu 0.0657
-1.7703 cilejit sampai_di 3.7260
-99.9990 cilejit sawah_besar 0.0622
-99.9990 cilejit serpong 0.0645
-99.9990 cilejit sudimara 0.0645
-99.9990 cilejit sudirman 0.0657
-99.9990 cilejit taman_kota 0.0696
-99.9990 cilejit tanah_abang 0.0633
-99.9990 cilejit tanah_tinggi 0.0669
-99.9990 cilejit tangerang 0.0682
-99.9990 cilejit tanjung_barat 0.0633
-99.9990 cilejit tanjung_priok 0.0633
-99.9990 cilejit tebet 0.0622
-99.9990 cilejit tenjo 0.0657
-99.9990 cilejit tigaraksa 0.0645
-1.8122 cilejit transit 1.8746
-99.9990 cilejit universitas_indonesia 0.0633
-99.9990 cilejit universitas_pancasila 0.0696
-0.5692 cipinang </s> 1.5298
-1.8323 cipinang ada 2.1852
-99.9990 cipinang ancol 0.0657
-99.9990 cipinang angke 0.0669
-99.9990 cipinang batu_ceper 0.0710
-99.9990 cipinang bekasi 0.0657
-99.9990 cipinang bogor 0.0669
-99.9990 cipinang bojong_gede 0.0657
-99.9990 cipinang bojong_indah 0.0669
-99.9990 cipinang buaran 0.0669
-99.9990 cipinang cakung 0.0633
-99.9990 cipinang cawang 0.0645
-99.9990 cipinang cicayur 0.0645
-99.9990 cipinang cikini 0.0657
-99.9990 cipinang cikoya 0.0657
-99.9990 cipinang cilebut 0.0682
-99.9990 cipinang cilejit 0.0645
-99.9990 cipinang cipinang 0.0633
-99.9990 cipinang cisauk 0.0696
-99.9990 cipinang citayam 0.0633
-99.9990 cipinang citeras 0.0682
-1.7776 cipinang dan 3.7070
-1.1741 cipinang dari 2.6074
-99.9990 cipinang daru 0.0645
-99.9990 cipinang depok 0.0669
-99.9990 cipinang depok_baru 0.0696
-99.9990 cipinang duren_kalibata 0.0645
-99.9990 cipinang duri 0.0645
-99.9990 cipinang gambir 0.0657
-99.9990 cipinang gang_sentiong 0.0669
-99.9990 cipinang gondangdia 0.0696
-99.9990 cipinang grogol 0.0657
-99.9990 cipinang jakarta_kota 0.0622
-99.9990 cipinang jam 1.8921
-99.9990 cipinang jam_berapa 0.0063
-99.9990 cipinang jatinegara 0.0670
-99.9990 cipinang jayakarta 0.0670
-99.9990 cipinang juanda 0.0669
-99.9990 cipinang jurangmangu 0.0670
-99.9990 cipinang kali_deres 0.0669
-99.9990 cipinang kampung_bandan 0.0657
-1.7719 cipinang kapan_saja 1.8270
-99.9990 cipinang karet 0.0669
-0.4349 cipinang ke -1.7678
-99.9990 cipinang kebayoran 0.0670
-99.9990 cipinang kemayoran 0.0657
-1.8011 cipinang kira-kira 1.8749
-99.9990 cipinang klender 0.0962
-99.9990 cipinang klender_baru 0.0657
-99.9990 cipinang kramat 0.0657
-99.9990 cipinang kranji 0.0669
-99.9990 cipinang lenteng_agung 0.0645
-99.9990 cipinang maja 0.0683
-99.9990 cipinang mampang 0.0645
-99.9990 cipinang mangga_besar 0.0645
-99.9990 cipinang manggarai 0.0657
-1.7719 cipinang mau -1.7083
-0.8674 cipinang naik 1.8809
-1.5185 cipinang naiknya 1.8777
-99.9990 cipinang palmerah 0.0657
-99.9990 cipinang parung_panjang 0.0670
-99.9990 cipinang pasar_minggu 0.0696
-99.9990 cipinang pasar_minggu_baru 0.0710
-99.9990 cipinang pasar_senen 0.0657
-99.9990 cipinang pesing 0.0670
-99.9990 cipinang pondok_cina 0.0657
-99.9990 cipinang pondok_jati 0.0682
-99.9990 cipinang pondok_ranji 0.0669
-99.9990 cipinang poris 0.0645
-99.9990 cipinang rajawali 0.0633
-99.9990 cipinang rangkas_bitung 0.0657
-99.9990 cipinang rawa_buaya 0.0696
-99.9990 cipinang rawa_buntu 0.0657
-1.7776 cipinang sampai_di 3.7260
-99.9990 cipinang sawah_besar 0.0622
-99.9990 cipinang serpong 0.0645
-99.9990 cipinang sudimara 0.0645
-99.9990 cipinang sudirman 0.0657
-99.9990 cipinang taman_kota 0.0696
-99.9990 cipinang tanah_abang 0.0633
-99.9990 cipinang tanah_tinggi 0.0669
-99.9990 cipinang tangerang 0.0682
-99.9990 cipinang tanjung_barat 0.0633
-99.9990 cipinang tanjung_priok 0.0633
-99.9990 cipinang tebet 0.0622
-99.9990 cipinang tenjo 0.0657
-99.9990 cipinang tigaraksa 0.0645
-1.8195 cipinang transit 1.8746
-99.9990 cipinang universitas_indonesia 0.0633
-99.9990 cipinang universitas_pancasila 0.0696
-0.5314 cisauk </s> 1.5298
-1.7945 cisauk ada 2.1852
-99.9990 cisauk ancol 0.0657
-99.9990 cisauk angke 0.0669
-99.9990 cisauk batu_ceper 0.0710
-99.9990 cisauk bekasi 0.0657
-99.9990 cisauk bogor 0.0669
-99.9990 cisauk bojong_gede 0.0657
-99.9990 cisauk bojong_indah 0.0669
-99.9990 cisauk buaran 0.0669
-99.9990 cisauk cakung 0.0633
-99.9990 cisauk cawang 0.0645
-99.9990 cisauk cicayur 0.0645
-99.9990 cisauk cikini 0.0657
-99.9990 cisauk cikoya 0.0657
-99.9990 cisauk cilebut 0.0682
-99.9990 cisauk cilejit 0.0645
-99.9990 cisauk cipinang 0.0633
-99.9990 cisauk cisauk 0.0696
-99.9990 cisauk citayam 0.0633
-99.9990 cisauk citeras 0.0682
-1.7397 cisauk dan 3.7070
-1.1363 cisauk dari 2.6074
-99.9990 cisauk daru 0.0645
-99.9990 cisauk depok 0.0669
-99.9990 cisauk depok_baru 0.0696
-99.9990 cisauk duren_kalibata 0.0645
-99.9990 cisauk duri 0.0645
-99.9990 cisauk gambir 0.0657
-99.9990 cisauk gang_sentiong 0.0669
-99.9990 cisauk gondangdia 0.0696
-99.9990 cisauk grogol 0.0657
-99.9990 cisauk jakarta_kota 0.0622
-99.9990 cisauk jam 1.8921
-99.9990 cisauk jam_berapa 0.0063
-99.9990 cisauk jatinegara 0.0670
-99.9990 cisauk jayakarta 0.0670
-99.9990 cisauk juanda 0.0669
-99.9990 cisauk jurangmangu 0.0670
-99.9990 cisauk kali_deres 0.0669
-99.9990 cisauk kampung_bandan 0.0657
-1.7341 cisauk kapan_saja 1.8270
-99.9990 cisauk karet 0.0669
-0.5090 cisauk ke -1.6559
-99.9990 cisauk kebayoran 0.0670
-99.9990 cisauk kemayoran 0.0657
-1.7632 cisauk kira-kira 1.8749
-99.9990 cisauk klender 0.0962
-99.9990 cisauk klender_baru 0.0657
-99.9990 cisauk kramat 0.0657
-99.9990 cisauk kranji 0.0669
-99.9990 cisauk lenteng_agung 0.0645
-99.9990 cisauk maja 0.0683
-99.9990 cisauk mampang 0.0645
-99.9990 cisauk mangga_besar 0.0645
-99.9990 cisauk manggarai 0.0657
-1.7341 cisauk mau -1.7083
-0.8296 cisauk naik 1.8809
-1.4807 cisauk naiknya 1.8777
-99.9990 cisauk palmerah 0.0657
-99.9990 cisauk parung_panjang 0.0670
-99.9990 cisauk pasar_minggu 0.0696
-99.9990 cisauk pasar_minggu_baru 0.0710
-99.9990 cisauk pasar_senen 0.0657
-99.9990 cisauk pesing 0.0670
-99.9990 cisauk pondok_cina 0.0657
-99.9990 cisauk pondok_jati 0.0682
-99.9990 cisauk pondok_ranji 0.0669
-99.9990 cisauk poris 0.0645
-99.9990 cisauk rajawali 0.0633
-99.9990 cisauk rangkas_bitung 0.0657
-99.9990 cisauk rawa_buaya 0.0696
-99.9990 cisauk rawa_buntu 0.0657
-1.7397 cisauk sampai_di 3.7260
-99.9990 cisauk sawah_besar 0.0622
-99.9990 cisauk serpong 0.0645
-99.9990 cisauk sudimara 0.0645
-99.9990 cisauk sudirman 0.0657
-99.9990 cisauk taman_kota 0.0696
-99.9990 cisauk tanah_abang 0.0633
-99.9990 cisauk tanah_tinggi 0.0669
-99.9990 cisauk tangerang 0.0682
-99.9990 cisauk tanjung_barat 0.0633
-99.9990 cisauk tanjung_priok 0.0633
-99.9990 cisauk tebet 0.0622
-99.9990 cisauk tenjo 0.0657
-99.9990 cisauk tigaraksa 0.0645
-1.7817 cisauk transit 1.8746
-99.9990 cisauk universitas_indonesia 0.0633
-99.9990 cisauk universitas_pancasila 0.0696
-0.5692 citayam </s> 1.5298
-1.8323 citayam ada 2.1852
-99.9990 citayam ancol 0.0657
-99.9990 citayam angke 0.0669
-99.9990 citayam batu_ceper 0.0710
-99.9990 citayam bekasi 0.0657
-99.9990 citayam bogor 0.0669
-99.9990 citayam bojong_gede 0.0657
-99.9990 citayam bojong_indah 0.0669
-99.9990 citayam buaran 0.0669
-99.9990 citayam cakung 0.0633
-99.9990 citayam cawang 0.0645
-99.9990 citayam cicayur 0.0645
-99.9990 citayam cikini 0.0657
-99.9990 citayam cikoya 0.0657
-99.9990 citayam cilebut 0.0682
-99.9990 citayam cilejit 0.0645
-99.9990 citayam cipinang 0.0633
-99.9990 citayam cisauk 0.0696
-99.9990 citayam citayam 0.0633
-99.9990 citayam citeras 0.0682
-1.7776 citayam dan 3.7070
-1.1741 citayam dari 2.6074
-99.9990 citayam daru 0.0645
-99.9990 citayam depok 0.0669
-99.9990 citayam depok_baru 0.0696
-99.9990 citayam duren_kalibata 0.0645
-99.9990 citayam duri 0.0645
-99.9990 citayam gambir 0.0657
-99.9990 citayam gang_sentiong 0.0669
-99.9990 citayam gondangdia 0.0696
-99.9990 citayam grogol 0.0657
-99.9990 citayam jakarta_kota 0.0622
-99.9990 citayam jam 1.8921
-99.9990 citayam jam_berapa 0.0063
-99.9990 citayam jatinegara 0.0670
-99.9990 citayam jayakarta 0.0670
-99.9990 citayam juanda 0.0669
-99.9990 citayam jurangmangu 0.0670
-99.9990 citayam kali_deres 0.0669
-99.9990 citayam kampung_bandan 0.0657
-1.7719 citayam kapan_saja 1.8270
-99.9990 citayam karet 0.0669
-0.4349 citayam ke -1.7678
-99.9990 citayam kebayoran 0.0670
-99.9990 citayam kemayoran 0.0657
-1.8011 citayam kira-kira 1.8749
-99.9990 citayam klender 0.0962
-99.9990 citayam klender_baru 0.0657
-99.9990 citayam kramat 0.0657
-99.9990 citayam kranji 0.0669
-99.9990 citayam lenteng_agung 0.0645
-99.9990 citayam maja 0.0683
-99.9990 citayam mampang 0.0645
-99.9990 citayam mangga_besar 0.0645
-99.9990 citayam manggarai 0.0657
-1.7719 citayam mau -1.7083
-0.8674 citayam naik 1.8809
-1.5185 citayam naiknya 1.8777
-99.9990 citayam palmerah 0.0657
-99.9990 citayam parung_panjang 0.0670
-99.9990 citayam pasar_minggu 0.0696
-99.9990 citayam pasar_minggu_baru 0.0710
-99.9990 citayam pasar_senen 0.0657
-99.9990 citayam pesing 0.0670
-99.9990 citayam pondok_cina 0.0657
-99.9990 citayam pondok_jati 0.0682
-99.9990 citayam pondok_ranji 0.0669
-99.9990 citayam poris 0.0645
-99.9990 citayam rajawali 0.0633
-99.9990 citayam rangkas_bitung 0.0657
-99.9990 citayam rawa_buaya 0.0696
-99.9990 citayam rawa_buntu 0.0657
-1.7776 citayam sampai_di 3.7260
-99.9990 citayam sawah_besar 0.0622
-99.9990 citayam serpong 0.0645
-99.9990 citayam sudimara 0.0645
-99.9990 citayam sudirman 0.0657
-99.9990 citayam taman_kota 0.0696
-99.9990 citayam tanah_abang 0.0633
-99.9990 citayam tanah_tinggi 0.0669
-99.9990 citayam tangerang 0.0682
-99.9990 citayam tanjung_barat 0.0633
-99.9990 citayam tanjung_priok 0.0633
-99.9990 citayam tebet 0.0622
-99.9990 citayam tenjo 0.0657
-99.9990 citayam tigaraksa 0.0645
-1.8195 citayam transit 1.8746
-99.9990 citayam universitas_indonesia 0.0633
-99.9990 citayam universitas_pancasila 0.0696
-0.5392 citeras </s> 1.5298
-1.8023 citeras ada 2.1852
-99.9990 citeras ancol 0.0657
-99.9990 citeras angke 0.0669
-99.9990 citeras batu_ceper 0.0710
-99.9990 citeras bekasi 0.0657
-99.9990 citeras bogor 0.0669
-99.9990 citeras bojong_gede 0.0657
-99.9990 citeras bojong_indah 0.0669
-99.9990 citeras buaran 0.0669
-99.9990 citeras cakung 0.0633
-99.9990 citeras cawang 0.0645
-99.9990 citeras cicayur 0.0645
-99.9990 citeras cikini 0.0657
-99.9990 citeras cikoya 0.0657
-99.9990 citeras cilebut 0.0682
-99.9990 citeras cilejit 0.0645
-99.9990 citeras cipinang 0.0633
-99.9990 citeras cisauk 0.0696
-99.9990 citeras citayam 0.0633
-99.9990 citeras citeras 0.0682
-1.7476 citeras dan 3.7070
-1.2686 citeras dari -0.9942
-99.9990 citeras daru 0.0645
-99.9990 citeras depok 0.0669
-99.9990 citeras depok_baru 0.0696
-99.9990 citeras duren_kalibata 0.0645
-99.9990 citeras duri 0.0645
-99.9990 citeras gambir 0.0657
-99.9990 citeras gang_sentiong 0.0669
-99.9990 citeras gondangdia 0.0696
-99.9990 citeras grogol 0.0657
-99.9990 citeras jakarta_kota 0.0622
-99.9990 citeras jam 1.8921
-99.9990 citeras jam_berapa 0.0063
-99.9990 citeras jatinegara 0.0670
-99.9990 citeras jayakarta 0.0670
-99.9990 citeras juanda 0.0669
-99.9990 citeras jurangmangu 0.0670
-99.9990 citeras kali_deres 0.0669
-99.9990 citeras kampung_bandan 0.0657
-1.7419 citeras kapan_saja 1.8270
-99.9990 citeras karet 0.0669
-0.4685 citeras ke -1.7042
-99.9990 citeras kebayoran 0.0670
-99.9990 citeras kemayoran 0.0657
-1.7711 citeras kira-kira 1.8749
-99.9990 citeras klender 0.0962
-99.9990 citeras klender_baru 0.0657
-99.9990 citeras kramat 0.0657
-99.9990 citeras kranji 0.0669
-99.9990 citeras lenteng_agung 0.0645
-99.9990 citeras maja 0.0683
-99.9990 citeras mampang 0.0645
-99.9990 citeras mangga_besar 0.0645
-99.9990 citeras manggarai 0.0657
-1.7419 citeras mau -1.7083
-0.8374 citeras naik 1.8809
-1.4885 citeras naiknya 1.8777
-99.9990 citeras palmerah 0.0657
-99.9990 citeras parung_panjang 0.0670
-99.9990 citeras pasar_minggu 0.0696
-99.9990 citeras pasar_minggu_baru 0.0710
-99.9990 citeras pasar_senen 0.0657
-99.9990 citeras pesing 0.0670
-99.9990 citeras pondok_cina 0.0657
-99.9990 citeras pondok_jati 0.0682
-99.9990 citeras pondok_ranji 0.0669
-99.9990 citeras poris 0.0645
-99.9990 citeras rajawali 0.0633
-99.9990 citeras rangkas_bitung 0.0657
-99.9990 citeras rawa_buaya 0.0696
-99.9990 citeras rawa_buntu 0.0657
-1.7476 citeras sampai_di 3.7260
-99.9990 citeras sawah_besar 0.0622
-99.9990 citeras serpong 0.0645
-99.9990 citeras sudimara 0.0645
-99.9990 citeras sudirman 0.0657
-99.9990 citeras taman_kota 0.0696
-99.9990 citeras tanah_abang 0.0633
-99.9990 citeras tanah_tinggi 0.0669
-99.9990 citeras tangerang 0.0682
-99.9990 citeras tanjung_barat 0.0633
-99.9990 citeras tanjung_priok 0.0633
-99.9990 citeras tebet 0.0622
-99.9990 citeras tenjo 0.0657
-99.9990 citeras tigaraksa 0.0645
-1.7895 citeras transit 1.8746
-99.9990 citeras universitas_indonesia 0.0633
-99.9990 citeras universitas_pancasila 0.0696
-1.8809 dan ancol -1.8194
-1.8809 dan angke -1.8193
-1.8809 dan batu_ceper -1.8189
-1.8809 dan bekasi -1.8194
-1.8809 dan bogor -1.8193
-1.8809 dan bojong_gede -1.8194
-1.8809 dan bojong_indah -1.8193
-1.8809 dan buaran -1.8193
-1.8809 dan cakung -1.8196
-1.8809 dan cawang -1.8195
-1.8809 dan cicayur -1.8195
-1.8809 dan cikini -1.8194
-1.8809 dan cikoya -1.8194
-1.8809 dan cilebut -1.8192
-1.8809 dan cilejit -1.8195
-1.8809 dan cipinang -1.8196
-1.8809 dan cisauk -1.8190
-1.8809 dan citayam -1.8196
-1.8809 dan citeras -1.8192
-1.8809 dan daru -1.8195
-1.8809 dan depok -1.8193
-1.8809 dan depok_baru -1.8190
-1.8809 dan duren_kalibata -1.8195
-1.8809 dan duri -1.8195
-1.8809 dan gambir -1.8194
-1.8809 dan gang_sentiong -1.8193
-1.8809 dan gondangdia -1.8190
-1.8809 dan grogol -1.8194
-1.8809 dan jakarta_kota -1.8197
-1.8809 dan jatinegara -1.8193
-1.8809 dan jayakarta -1.8193
-1.8809 dan juanda -1.8193
-1.8809 dan jurangmangu -1.8193
-1.8809 dan kali_deres -1.8193
-1.8809 dan kampung_bandan -1.8194
-1.8809 dan karet -1.8193
-1.8809 dan kebayoran -1.8193
-1.8809 dan kemayoran -1.8194
-1.8809 dan klender -1.8166
-1.8809 dan klender_baru -1.8194
-1.8809 dan kramat -1.8194
-1.8809 dan kranji -1.8193
-1.8809 dan lenteng_agung -1.8195
-1.8809 dan maja -1.8192
-1.8809 dan mampang -1.8195
-1.8809 dan mangga_besar -1.8195
-1.8809 dan manggarai -1.8194
-1.8809 dan palmerah -1.8194
-1.8809 dan parung_panjang -1.8193
-1.8809 dan pasar_minggu -1.8190
-1.8809 dan pasar_minggu_baru -1.8189
-1.8809 dan pasar_senen -1.8194
-1.8809 dan pesing -1.8193
-1.8809 dan pondok_cina -1.8194
-1.8809 dan pondok_jati -1.8192
-1.8809 dan pondok_ranji -1.8193
-1.8809 dan poris -1.8195
-1.8809 dan rajawali -1.8196
-1.8809 dan rangkas_bitung -1.8194
-1.8809 dan rawa_buaya -1.8190
-1.8809 dan rawa_buntu -1.8194
-1.8809 dan sawah_besar -1.8197
-1.8809 dan serpong -1.8195
-1.8809 dan sudimara -1.8195
-1.8809 dan sudirman -1.8194
-1.8809 dan taman_kota -1.8190
-1.8809 dan tanah_abang -1.8196
-1.8809 dan tanah_tinggi -1.8193
-1.8809 dan tangerang -1.8192
-1.8809 dan tanjung_barat -1.8196
-1.8809 dan tanjung_priok -1.8196
-1.8809 dan tebet -1.8197
-1.8809 dan tenjo -1.8194
-1.8809 dan tigaraksa -1.8195
-1.8809 dan universitas_indonesia -1.8196
-1.8809 dan universitas_pancasila -1.8190
-1.8760 dari ancol -2.5179
-1.8966 dari angke -2.4659
-1.9182 dari batu_ceper -2.3766
-1.8966 dari bekasi -2.5332
-1.8966 dari bogor -2.5408
-1.9182 dari bojong_gede -2.5116
-1.9409 dari bojong_indah -2.4965
-1.8966 dari buaran -2.5408
-1.8564 dari cakung -2.5228
-1.8564 dari cawang -2.4911
-1.8966 dari cicayur -2.5258
-1.8966 dari cikini -2.4974
-1.8966 dari cikoya -2.4974
-1.9182 dari cilebut -2.4910
-1.8760 dari cilejit -2.5464
-1.8760 dari cipinang -2.5391
-1.9409 dari cisauk -2.5120
-1.8760 dari citayam -2.5391
-1.9409 dari citeras -2.4683
-1.8966 dari daru -2.5258
-1.9182 dari depok -2.5192
-1.9182 dari depok_baru -2.4164
-1.8966 dari duren_kalibata -2.5258
-1.8760 dari duri -2.5105
-1.8966 dari gambir -2.4970
-1.8966 dari gang_sentiong -2.5049
-1.9649 dari gondangdia -2.4880
-1.9182 dari grogol -2.5116
-1.8564 dari jakarta_kota -2.5515
-1.8966 dari jatinegara -2.5046
-1.8966 dari jayakarta -2.4650
-1.9409 dari juanda -2.4965
-1.8760 dari jurangmangu -2.4430
-1.9182 dari kali_deres -2.4834
-1.8966 dari kampung_bandan -2.4974
-1.9409 dari karet -2.4965
-1.8966 dari kebayoran -2.5046
-1.9182 dari kemayoran -2.5116
-2.1848 dari klender -2.2298
-1.8760 dari klender_baru -2.5179
-1.8760 dari kramat -2.5179
-1.9182 dari kranji -2.4834
-1.8760 dari lenteng_agung -2.5101
-1.8966 dari maja -2.5123
-1.8760 dari mampang -2.5105
-1.8760 dari mangga_besar -2.5464
-1.8966 dari manggarai -2.4974
-1.8760 dari palmerah -2.4784
-1.9182 dari parung_panjang -2.4830
-1.9182 dari pasar_minggu -2.4985
-1.9649 dari pasar_minggu_baru -2.4211
-1.8760 dari pasar_senen -2.5176
-1.8760 dari pesing -2.4430
-1.9182 dari pondok_cina -2.5116
-1.9182 dari pondok_jati -2.4910
-1.8760 dari pondok_ranji -2.5255
-1.8760 dari poris -2.5105
-1.8760 dari rajawali -2.5391
-1.8966 dari rangkas_bitung -2.4974
-1.9649 dari rawa_buaya -2.4880
-1.8760 dari rawa_buntu -2.4789
-1.8564 dari sawah_besar -2.5515
-1.8760 dari serpong -2.5101
-1.3657 dari stasiun 0.3010
-1.8760 dari sudimara -2.5464
-1.8760 dari sudirman -2.5179
-1.9409 dari taman_kota -2.4366
-1.8760 dari tanah_abang -2.5391
-1.9182 dari tanah_tinggi -2.4834
-1.9409 dari tangerang -2.5042
-1.8564 dari tanjung_barat -2.5228
-1.8760 dari tanjung_priok -2.5391
-1.8564 dari tebet -2.5515
-1.8760 dari tenjo -2.4784
-1.8760 dari tigaraksa -2.5464
-1.8760 dari universitas_indonesia -2.5391
-1.9649 dari universitas_pancasila -2.4880
-0.5619 daru </s> 1.5298
-1.8250 daru ada 2.1852
-99.9990 daru ancol 0.0657
-99.9990 daru angke 0.0669
-99.9990 daru batu_ceper 0.0710
-99.9990 daru bekasi 0.0657
-99.9990 daru bogor 0.0669
-99.9990 daru bojong_gede 0.0657
-99.9990 daru bojong_indah 0.0669
-99.9990 daru buaran 0.0669
-99.9990 daru cakung 0.0633
-99.9990 daru cawang 0.0645
-99.9990 daru cicayur 0.0645
-99.9990 daru cikini 0.0657
-99.9990 daru cikoya 0.0657
-99.9990 daru cilebut 0.0682
-99.9990 daru cilejit 0.0645
-99.9990 daru cipinang 0.0633
-99.9990 daru cisauk 0.0696
-99.9990 daru citayam 0.0633
-99.9990 daru citeras 0.0682
-1.7703 daru dan 3.7070
-1.1668 daru dari 2.6074
-99.9990 daru daru 0.0645
-99.9990 daru depok 0.0669
-99.9990 daru depok_baru 0.0696
-99.9990 daru duren_kalibata 0.0645
-99.9990 daru duri 0.0645
-99.9990 daru gambir 0.0657
-99.9990 daru gang_sentiong 0.0669
-99.9990 daru gondangdia 0.0696
-99.9990 daru grogol 0.0657
-99.9990 daru jakarta_kota 0.0622
-99.9990 daru jam 1.8921
-99.9990 daru jam_berapa 0.0063
-99.9990 daru jatinegara 0.0670
-99.9990 daru jayakarta 0.0670
-99.9990 daru juanda 0.0669
-99.9990 daru jurangmangu 0.0670
-99.9990 daru kali_deres 0.0669
-99.9990 daru kampung_bandan 0.0657
-1.7646 daru kapan_saja 1.8270
-99.9990 daru karet 0.0669
-0.4478 daru ke -1.7476
-99.9990 daru kebayoran 0.0670
-99.9990 daru kemayoran 0.0657
-1.7938 daru kira-kira 1.8749
-99.9990 daru klender 0.0962
-99.9990 daru klender_baru 0.0657
-99.9990 daru kramat 0.0657
-99.9990 daru kranji 0.0669
-99.9990 daru lenteng_agung 0.0645
-99.9990 daru maja 0.0683
-99.9990 daru mampang 0.0645
-99.9990 daru mangga_besar 0.0645
-99.9990 daru manggarai 0.0657
-1.7646 daru mau -1.7083
-0.8601 daru naik 1.8809
-1.5112 daru naiknya 1.8777
-99.9990 daru palmerah 0.0657
-99.9990 daru parung_panjang 0.0670
-99.9990 daru pasar_minggu 0.0696
-99.9990 daru pasar_minggu_baru 0.0710
-99.9990 daru pasar_senen 0.0657
-99.9990 daru pesing 0.0670
-99.9990 daru pondok_cina 0.0657
-99.9990 daru pondok_jati 0.0682
-99.9990 daru pondok_ranji 0.0669
-99.9990 daru poris 0.0645
-99.9990 daru rajawali 0.0633
-99.9990 daru rangkas_bitung 0.0657
-99.9990 daru rawa_buaya 0.0696
-99.9990 daru rawa_buntu 0.0657
-1.7703 daru sampai_di 3.7260
-99.9990 daru sawah_besar 0.0622
-99.9990 daru serpong 0.0645
-99.9990 daru sudimara 0.0645
-99.9990 daru sudirman 0.0657
-99.9990 daru taman_kota 0.0696
-99.9990 daru tanah_abang 0.0633
-99.9990 daru tanah_tinggi 0.0669
-99.9990 daru tangerang 0.0682
-99.9990 daru tanjung_barat 0.0633
-99.9990 daru tanjung_priok 0.0633
-99.9990 daru tebet 0.0622
-99.9990 daru tenjo 0.0657
-99.9990 daru tigaraksa 0.0645
-1.8122 daru transit 1.8746
-99.9990 daru universitas_indonesia 0.0633
-99.9990 daru universitas_pancasila 0.0696
-0.5469 depok </s> 1.5298
-1.8100 depok ada 2.1852
-99.9990 depok ancol 0.0657
-99.9990 depok angke 0.0669
-99.9990 depok batu_ceper 0.0710
-99.9990 depok bekasi 0.0657
-99.9990 depok bogor 0.0669
-99.9990 depok bojong_gede 0.0657
-99.9990 depok bojong_indah 0.0669
-99.9990 depok buaran 0.0669
-99.9990 depok cakung 0.0633
-99.9990 depok cawang 0.0645
-99.9990 depok cicayur 0.0645
-99.9990 depok cikini 0.0657
-99.9990 depok cikoya 0.0657
-99.9990 depok cilebut 0.0682
-99.9990 depok cilejit 0.0645
-99.9990 depok cipinang 0.0633
-99.9990 depok cisauk 0.0696
-99.9990 depok citayam 0.0633
-99.9990 depok citeras 0.0682
-1.7553 depok dan 3.7070
-1.1518 depok dari 2.6074
-99.9990 depok daru 0.0645
-99.9990 depok depok 0.0669
-99.9990 depok depok_baru 0.0696
-99.9990 depok duren_kalibata 0.0645
-99.9990 depok duri 0.0645
-99.9990 depok gambir 0.0657
-99.9990 depok gang_sentiong 0.0669
-99.9990 depok gondangdia 0.0696
-99.9990 depok grogol 0.0657
-99.9990 depok jakarta_kota 0.0622
-99.9990 depok jam 1.8921
-99.9990 depok jam_berapa 0.0063
-99.9990 depok jatinegara 0.0670
-99.9990 depok jayakarta 0.0670
-99.9990 depok juanda 0.0669
-99.9990 depok jurangmangu 0.0670
-99.9990 depok kali_deres 0.0669
-99.9990 depok kampung_bandan 0.0657
-1.7496 depok kapan_saja 1.8270
-99.9990 depok karet 0.0669
-0.4762 depok ke -1.7042
-99.9990 depok kebayoran 0.0670
-99.9990 depok kemayoran 0.0657
-1.7788 depok kira-kira 1.8749
-99.9990 depok klender 0.0962
-99.9990 depok klender_baru 0.0657
-99.9990 depok kramat 0.0657
-99.9990 depok kranji 0.0669
-99.9990 depok lenteng_agung 0.0645
-99.9990 depok maja 0.0683
-99.9990 depok mampang 0.0645
-99.9990 depok mangga_besar 0.0645
-99.9990 depok manggarai 0.0657
-1.7496 depok mau -1.7083
-0.8451 depok naik 1.8809
-1.4962 depok naiknya 1.8777
-99.9990 depok palmerah 0.0657
-99.9990 depok parung_panjang 0.0670
-99.9990 depok pasar_minggu 0.0696
-99.9990 depok pasar_minggu_baru 0.0710
-99.9990 depok pasar_senen 0.0657
-99.9990 depok pesing 0.0670
-99.9990 depok pondok_cina 0.0657
-99.9990 depok pondok_jati 0.0682
-99.9990 depok pondok_ranji 0.0669
-99.9990 depok poris 0.0645
-99.9990 depok rajawali 0.0633
-99.9990 depok rangkas_bitung 0.0657
-99.9990 depok rawa_buaya 0.0696
-99.9990 depok rawa_buntu 0.0657
-1.7553 depok sampai_di 3.7260
-99.9990 depok sawah_besar 0.0622
-99.9990 depok serpong 0.0645
-99.9990 depok sudimara 0.0645
-99.9990 depok sudirman 0.0657
-99.9990 depok taman_kota 0.0696
-99.9990 depok tanah_abang 0.0633
-99.9990 depok tanah_tinggi 0.0669
-99.9990 depok tangerang 0.0682
-99.9990 depok tanjung_barat 0.0633
-99.9990 depok tanjung_priok 0.0633
-99.9990 depok tebet 0.0622
-99.9990 depok tenjo 0.0657
-99.9990 depok tigaraksa 0.0645
-1.7972 depok transit 1.8746
-99.9990 depok universitas_indonesia 0.0633
-99.9990 depok universitas_pancasila 0.0696
-0.5313 depok_baru </s> 1.5298
-1.7944 depok_baru ada 2.1852
-99.9990 depok_baru ancol 0.0657
-99.9990 depok_baru angke 0.0669
-99.9990 depok_baru batu_ceper 0.0710
-99.9990 depok_baru bekasi 0.0657
-99.9990 depok_baru bogor 0.0669
-99.9990 depok_baru bojong_gede 0.0657
-99.9990 depok_baru bojong_indah 0.0669
-99.9990 depok_baru buaran 0.0669
-99.9990 depok_baru cakung 0.0633
-99.9990 depok_baru cawang 0.0645
-99.9990 depok_baru cicayur 0.0645
-99.9990 depok_baru cikini 0.0657
-99.9990 depok_baru cikoya 0.0657
-99.9990 depok_baru cilebut 0.0682
-99.9990 depok_baru cilejit 0.0645
-99.9990 depok_baru cipinang 0.0633
-99.9990 depok_baru cisauk 0.0696
-99.9990 depok_baru citayam 0.0633
-99.9990 depok_baru citeras 0.0682
-1.7396 depok_baru dan 3.7070
-1.4358 depok_baru dari -0.8191
-99.9990 depok_baru daru 0.0645
-99.9990 depok_baru depok 0.0669
-99.9990 depok_baru depok_baru 0.0696
-99.9990 depok_baru duren_kalibata 0.0645
-99.9990 depok_baru duri 0.0645
-99.9990 depok_baru gambir 0.0657
-99.9990 depok_baru gang_sentiong 0.0669
-99.9990 depok_baru gondangdia 0.0696
-99.9990 depok_baru grogol 0.0657
-99.9990 depok_baru jakarta_kota 0.0622
-99.9990 depok_baru jam 1.8921
-99.9990 depok_baru jam_berapa 0.0063
-99.9990 depok_baru jatinegara 0.0670
-99.9990 depok_baru jayakarta 0.0670
-99.9990 depok_baru juanda 0.0669
-99.9990 depok_baru jurangmangu 0.0670
-99.9990 depok_baru kali_deres 0.0669
-99.9990 depok_baru kampung_bandan 0.0657
-1.7340 depok_baru kapan_saja 1.8270
-99.9990 depok_baru karet 0.0669
-0.4383 depok_baru ke -1.7265
-99.9990 depok_baru kebayoran 0.0670
-99.9990 depok_baru kemayoran 0.0657
-1.7631 depok_baru kira-kira 1.8749
-99.9990 depok_baru klender 0.0962
-99.9990 depok_baru klender_baru 0.0657
-99.9990 depok_baru kramat 0.0657
-99.9990 depok_baru kranji 0.0669
-99.9990 depok_baru lenteng_agung 0.0645
-99.9990 depok_baru maja 0.0683
-99.9990 depok_baru mampang 0.0645
-99.9990 depok_baru mangga_besar 0.0645
-99.9990 depok_baru manggarai 0.0657
-0.8295 depok_baru naik 1.8809
-1.4806 depok_baru naiknya 1.8777
-99.9990 depok_baru palmerah 0.0657
-99.9990 depok_baru parung_panjang 0.0670
-99.9990 depok_baru pasar_minggu 0.0696
-99.9990 depok_baru pasar_minggu_baru 0.0710
-99.9990 depok_baru pasar_senen 0.0657
-99.9990 depok_baru pesing 0.0670
-99.9990 depok_baru pondok_cina 0.0657
-99.9990 depok_baru pondok_jati 0.0682
-99.9990 depok_baru pondok_ranji 0.0669
-99.9990 depok_baru poris 0.0645
-99.9990 depok_baru rajawali 0.0633
-99.9990 depok_baru rangkas_bitung 0.0657
-99.9990 depok_baru rawa_buaya 0.0696
-99.9990 depok_baru rawa_buntu 0.0657
-1.7396 depok_baru sampai_di 3.7260
-99.9990 depok_baru sawah_besar 0.0622
-99.9990 depok_baru serpong 0.0645
-99.9990 depok_baru sudimara 0.0645
-99.9990 depok_baru sudirman 0.0657
-99.9990 depok_baru taman_kota 0.0696
-99.9990 depok_baru tanah_abang 0.0633
-99.9990 depok_baru tanah_tinggi 0.0669
-99.9990 depok_baru tangerang 0.0682
-99.9990 depok_baru tanjung_barat 0.0633
-99.9990 depok_baru tanjung_priok 0.0633
-99.9990 depok_baru tebet 0.0622
-99.9990 depok_baru tenjo 0.0657
-99.9990 depok_baru tigaraksa 0.0645
-1.7816 depok_baru transit 1.8746
-99.9990 depok_baru universitas_indonesia 0.0633
-99.9990 depok_baru universitas_pancasila 0.0696
-2.1277 di ancol -1.8788
-2.1277 di angke -1.8787
-2.1277 di bekasi -1.8788
-2.1277 di bogor -1.8787
-2.1277 di bojong_gede -1.8788
-2.1277 di bojong_indah -1.8787
-2.1277 di buaran -1.8787
-2.1277 di cakung -1.8791
-2.1277 di cawang -1.8790
-2.1277 di cicayur -1.8790
-2.1277 di cikini -1.8788
-2.1277 di cikoya -1.8788
-2.1277 di cilebut -1.8786
-2.1277 di cilejit -1.8790
-2.1277 di cipinang -1.8791
-2.1277 di cisauk -1.8784
-2.1277 di citayam -1.8791
-2.1277 di citeras -1.8786
-2.1277 di daru -1.8790
-2.1277 di depok -1.8787
-2.1277 di duren_kalibata -1.8790
-2.1277 di duri -1.8790
-2.1277 di gambir -1.8788
-2.1277 di gang_sentiong -1.8787
-2.1277 di gondangdia -1.8784
-2.1277 di grogol -1.8788
-2.1277 di jakarta_kota -1.8792
-2.1277 di juanda -1.8787
-2.1277 di jurangmangu -1.8787
-2.1277 di kali_deres -1.8787
-2.1277 di kampung_bandan -1.8788
-2.1277 di karet -1.8787
-2.1277 di kebayoran -1.8787
-2.1277 di kemayoran -1.8788
-2.1277 di klender -1.8756
-2.1277 di klender_baru -1.8788
-2.1277 di kramat -1.8788
-2.1277 di kranji -1.8787
-2.1277 di maja -1.8785
-2.1277 di mampang -1.8790
-2.1277 di mangga_besar -1.8790
-2.1277 di manggarai -1.8788
-2.1277 di palmerah -1.8788
-2.1277 di parung_panjang -1.8787
-2.1277 di pasar_minggu_baru -1.8783
-2.1277 di pasar_senen -1.8788
-2.1277 di pesing -1.8787
-2.1277 di pondok_cina -1.8788
-2.1277 di pondok_jati -1.8786
-2.1277 di pondok_ranji -1.8787
-2.1277 di poris -1.8790
-2.1277 di rajawali -1.8791
-2.1277 di rangkas_bitung -1.8788
-2.1277 di rawa_buaya -1.8784
-2.1277 di rawa_buntu -1.8788
-0.3137 di satu 0.0001
-2.1277 di sawah_besar -1.8792
-2.1277 di sudimara -1.8790
-2.1277 di sudirman -1.8788
-2.1277 di taman_kota -1.8784
-2.1277 di tanah_abang -1.8791
-2.1277 di tanah_tinggi -1.8787
-2.1277 di tangerang -1.8786
-2.1277 di tanjung_barat -1.8791
-2.1277 di tanjung_priok -1.8791
-2.1277 di tebet -1.8792
-2.1277 di tenjo -1.8788
-2.1277 di tigaraksa -1.8790
-2.1277 di universitas_indonesia -1.8791
-2.1277 di universitas_pancasila -1.8784
-0.0001 dimana saja -1.8793
-0.5619 duren_kalibata </s> 1.5298
-1.8250 duren_kalibata ada 2.1852
-99.9990 duren_kalibata ancol 0.0657
-99.9990 duren_kalibata angke 0.0669
-99.9990 duren_kalibata batu_ceper 0.0710
-99.9990 duren_kalibata bekasi 0.0657
-99.9990 duren_kalibata bogor 0.0669
-99.9990 duren_kalibata bojong_gede 0.0657
-99.9990 duren_kalibata bojong_indah 0.0669
-99.9990 duren_kalibata buaran 0.0669
-99.9990 duren_kalibata cakung 0.0633
-99.9990 duren_kalibata cawang 0.0645
-99.9990 duren_kalibata cicayur 0.0645
-99.9990 duren_kalibata cikini 0.0657
-99.9990 duren_kalibata cikoya 0.0657
-99.9990 duren_kalibata cilebut 0.0682
-99.9990 duren_kalibata cilejit 0.0645
-99.9990 duren_kalibata cipinang 0.0633
-99.9990 duren_kalibata cisauk 0.0696
-99.9990 duren_kalibata citayam 0.0633
-99.9990 duren_kalibata citeras 0.0682
-1.7703 duren_kalibata dan 3.7070
-1.1668 duren_kalibata dari 2.6074
-99.9990 duren_kalibata daru 0.0645
-99.9990 duren_kalibata depok 0.0669
-99.9990 duren_kalibata depok_baru 0.0696
-99.9990 duren_kalibata duren_kalibata 0.0645
-99.9990 duren_kalibata duri 0.0645
-99.9990 duren_kalibata gambir 0.0657
-99.9990 duren_kalibata gang_sentiong 0.0669
-99.9990 duren_kalibata gondangdia 0.0696
-99.9990 duren_kalibata grogol 0.0657
-99.9990 duren_kalibata jakarta_kota 0.0622
-99.9990 duren_kalibata jam 1.8921
-99.9990 duren_kalibata jam_berapa 0.0063
-99.9990 duren_kalibata jatinegara 0.0670
-99.9990 duren_kalibata jayakarta 0.0670
-99.9990 duren_kalibata juanda 0.0669
-99.9990 duren_kalibata jurangmangu 0.0670
-99.9990 duren_kalibata kali_deres 0.0669
-99.9990 duren_kalibata kampung_bandan 0.0657
-1.7646 duren_kalibata kapan_saja 1.8270
-99.9990 duren_kalibata karet 0.0669
-0.4478 duren_kalibata ke -1.7476
-99.9990 duren_kalibata kebayoran 0.0670
-99.9990 duren_kalibata kemayoran 0.0657
-1.7938 duren_kalibata kira-kira 1.8749
-99.9990 duren_kalibata klender 0.0962
-99.9990 duren_kalibata klender_baru 0.0657
-99.9990 duren_kalibata kramat 0.0657
-99.9990 duren_kalibata kranji 0.0669
-99.9990 duren_kalibata lenteng_agung 0.0645
-99.9990 duren_kalibata maja 0.0683
-99.9990 duren_kalibata mampang 0.0645
-99.9990 duren_kalibata mangga_besar 0.0645
-99.9990 duren_kalibata manggarai 0.0657
-1.7646 duren_kalibata mau -1.7083
-0.8601 duren_kalibata naik 1.8809
-1.5112 duren_kalibata naiknya 1.8777
-99.9990 duren_kalibata palmerah 0.0657
-99.9990 duren_kalibata parung_panjang 0.0670
-99.9990 duren_kalibata pasar_minggu 0.0696
-99.9990 duren_kalibata pasar_minggu_baru 0.0710
-99.9990 duren_kalibata pasar_senen 0.0657
-99.9990 duren_kalibata pesing 0.0670
-99.9990 duren_kalibata pondok_cina 0.0657
-99.9990 duren_kalibata pondok_jati 0.0682
-99.9990 duren_kalibata pondok_ranji 0.0669
-99.9990 duren_kalibata poris 0.0645
-99.9990 duren_kalibata rajawali 0.0633
-99.9990 duren_kalibata rangkas_bitung 0.0657
-99.9990 duren_kalibata rawa_buaya 0.0696
-99.9990 duren_kalibata rawa_buntu 0.0657
-1.7703 duren_kalibata sampai_di 3.7260
-99.9990 duren_kalibata sawah_besar 0.0622
-99.9990 duren_kalibata serpong 0.0645
-99.9990 duren_kalibata sudimara 0.0645
-99.9990 duren_kalibata sudirman 0.0657
-99.9990 duren_kalibata taman_kota 0.0696
-99.9990 duren_kalibata tanah_abang 0.0633
-99.9990 duren_kalibata tanah_tinggi 0.0669
-99.9990 duren_kalibata tangerang 0.0682
-99.9990 duren_kalibata tanjung_barat 0.0633
-99.9990 duren_kalibata tanjung_priok 0.0633
-99.9990 duren_kalibata tebet 0.0622
-99.9990 duren_kalibata tenjo 0.0657
-99.9990 duren_kalibata tigaraksa 0.0645
-1.8122 duren_kalibata transit 1.8746
-99.9990 duren_kalibata universitas_indonesia 0.0633
-99.9990 duren_kalibata universitas_pancasila 0.0696
-0.5619 duri </s> 1.5298
-1.8250 duri ada 2.1852
-99.9990 duri ancol 0.0657
-99.9990 duri angke 0.0669
-99.9990 duri batu_ceper 0.0710
-99.9990 duri bekasi 0.0657
-99.9990 duri bogor 0.0669
-99.9990 duri bojong_gede 0.0657
-99.9990 duri bojong_indah 0.0669
-99.9990 duri buaran 0.0669
-99.9990 duri cakung 0.0633
-99.9990 duri cawang 0.0645
-99.9990 duri cicayur 0.0645
-99.9990 duri cikini 0.0657
-99.9990 duri cikoya 0.0657
-99.9990 duri cilebut 0.0682
-99.9990 duri cilejit 0.0645
-99.9990 duri cipinang 0.0633
-99.9990 duri cisauk 0.0696
-99.9990 duri citayam 0.0633
-99.9990 duri citeras 0.0682
-1.7703 duri dan 3.7070
-1.2912 duri dari 2.7318
-99.9990 duri daru 0.0645
-99.9990 duri depok 0.0669
-99.9990 duri depok_baru 0.0696
-99.9990 duri duren_kalibata 0.0645
-99.9990 duri duri 0.0645
-99.9990 duri gambir 0.0657
-99.9990 duri gang_sentiong 0.0669
-99.9990 duri gondangdia 0.0696
-99.9990 duri grogol 0.0657
-99.9990 duri jakarta_kota 0.0622
-99.9990 duri jam 1.8921
-99.9990 duri jam_berapa 0.0063
-99.9990 duri jatinegara 0.0670
-99.9990 duri jayakarta 0.0670
-99.9990 duri juanda 0.0669
-99.9990 duri jurangmangu 0.0670
-99.9990 duri kali_deres 0.0669
-99.9990 duri kampung_bandan 0.0657
-1.7646 duri kapan_saja 1.8270
-99.9990 duri karet 0.0669
-0.4276 duri ke -1.7678
-99.9990 duri kebayoran 0.0670
-99.9990 duri kemayoran 0.0657
-1.7938 duri kira-kira 1.8749
-99.9990 duri klender 0.0962
-99.9990 duri klender_baru 0.0657
-99.9990 duri kramat 0.0657
-99.9990 duri kranji 0.0669
-99.9990 duri lenteng_agung 0.0645
-99.9990 duri maja 0.0683
-99.9990 duri mampang 0.0645
-99.9990 duri mangga_besar 0.0645
-99.9990 duri manggarai 0.0657
-1.7646 duri mau -1.7083
-0.8601 duri naik 1.8809
-1.5112 duri naiknya 1.8777
-99.9990 duri palmerah 0.0657
-99.9990 duri parung_panjang 0.0670
-99.9990 duri pasar_minggu 0.0696
-99.9990 duri pasar_minggu_baru 0.0710
-99.9990 duri pasar_senen 0.0657
-99.9990 duri pesing 0.0670
-99.9990 duri pondok_cina 0.0657
-99.9990 duri pondok_jati 0.0682
-99.9990 duri pondok_ranji 0.0669
-99.9990 duri poris 0.0645
-99.9990 duri rajawali 0.0633
-99.9990 duri rangkas_bitung 0.0657
-99.9990 duri rawa_buaya 0.0696
-99.9990 duri rawa_buntu 0.0657
-1.7703 duri sampai_di 3.7260
-99.9990 duri sawah_besar 0.0622
-99.9990 duri serpong 0.0645
-99.9990 duri sudimara 0.0645
-99.9990 duri sudirman 0.0657
-99.9990 duri taman_kota 0.0696
-99.9990 duri tanah_abang 0.0633
-99.9990 duri tanah_tinggi 0.0669
-99.9990 duri tangerang 0.0682
-99.9990 duri tanjung_barat 0.0633
-99.9990 duri tanjung_priok 0.0633
-99.9990 duri tebet 0.0622
-99.9990 duri tenjo 0.0657
-99.9990 duri tigaraksa 0.0645
-1.8122 duri transit 1.8746
-99.9990 duri universitas_indonesia 0.0633
-99.9990 duri universitas_pancasila 0.0696
-0.5544 gambir </s> 1.5298
-1.8175 gambir ada 2.1852
-99.9990 gambir ancol 0.0657
-99.9990 gambir angke 0.0669
-99.9990 gambir batu_ceper 0.0710
-99.9990 gambir bekasi 0.0657
-99.9990 gambir bogor 0.0669
-99.9990 gambir bojong_gede 0.0657
-99.9990 gambir bojong_indah 0.0669
-99.9990 gambir buaran 0.0669
-99.9990 gambir cakung 0.0633
-99.9990 gambir cawang 0.0645
-99.9990 gambir cicayur 0.0645
-99.9990 gambir cikini 0.0657
-99.9990 gambir cikoya 0.0657
-99.9990 gambir cilebut 0.0682
-99.9990 gambir cilejit 0.0645
-99.9990 gambir cipinang 0.0633
-99.9990 gambir cisauk 0.0696
-99.9990 gambir citayam 0.0633
-99.9990 gambir citeras 0.0682
-1.7627 gambir dan 3.7070
-1.1593 gambir dari 2.6074
-99.9990 gambir daru 0.0645
-99.9990 gambir depok 0.0669
-99.9990 gambir depok_baru 0.0696
-99.9990 gambir duren_kalibata 0.0645
-99.9990 gambir duri 0.0645
-99.9990 gambir gambir 0.0657
-99.9990 gambir gang_sentiong 0.0669
-99.9990 gambir gondangdia 0.0696
-99.9990 gambir grogol 0.0657
-99.9990 gambir jakarta_kota 0.0622
-99.9990 gambir jam 1.8921
-99.9990 gambir jam_berapa 0.0063
-99.9990 gambir jatinegara 0.0670
-99.9990 gambir jayakarta 0.0670
-99.9990 gambir juanda 0.0669
-99.9990 gambir jurangmangu 0.0670
-99.9990 gambir kali_deres 0.0669
-99.9990 gambir kampung_bandan 0.0657
-99.9990 gambir karet 0.0669
-0.4402 gambir ke -1.7476
-99.9990 gambir kebayoran 0.0670
-99.9990 gambir kemayoran 0.0657
-1.7862 gambir kira-kira 1.8749
-99.9990 gambir klender 0.0962
-99.9990 gambir klender_baru 0.0657
-99.9990 gambir kramat 0.0657
-99.9990 gambir kranji 0.0669
-99.9990 gambir lenteng_agung 0.0645
-99.9990 gambir maja 0.0683
-99.9990 gambir mampang 0.0645
-99.9990 gambir mangga_besar 0.0645
-99.9990 gambir manggarai 0.0657
-1.7571 gambir mau -1.7083
-0.8526 gambir naik 1.8809
-1.5037 gambir naiknya 1.8777
-99.9990 gambir palmerah 0.0657
-99.9990 gambir parung_panjang 0.0670
-99.9990 gambir pasar_minggu 0.0696
-99.9990 gambir pasar_minggu_baru 0.0710
-99.9990 gambir pasar_senen 0.0657
-99.9990 gambir pesing 0.0670
-99.9990 gambir pondok_cina 0.0657
-99.9990 gambir pondok_jati 0.0682
-99.9990 gambir pondok_ranji 0.0669
-99.9990 gambir poris 0.0645
-99.9990 gambir rajawali 0.0633
-99.9990 gambir rangkas_bitung 0.0657
-99.9990 gambir rawa_buaya 0.0696
-99.9990 gambir rawa_buntu 0.0657
-1.7627 gambir sampai_di 3.7260
-99.9990 gambir sawah_besar 0.0622
-99.9990 gambir serpong 0.0645
-99.9990 gambir sudimara 0.0645
-99.9990 gambir sudirman 0.0657
-99.9990 gambir taman_kota 0.0696
-99.9990 gambir tanah_abang 0.0633
-99.9990 gambir tanah_tinggi 0.0669
-99.9990 gambir tangerang 0.0682
-99.9990 gambir tanjung_barat 0.0633
-99.9990 gambir tanjung_priok 0.0633
-99.9990 gambir tebet 0.0622
-99.9990 gambir tenjo 0.0657
-99.9990 gambir tigaraksa 0.0645
-1.8047 gambir transit 1.8746
-99.9990 gambir universitas_indonesia 0.0633
-99.9990 gambir universitas_pancasila 0.0696
-0.5469 gang_sentiong </s> 1.5298
-1.8100 gang_sentiong ada 2.1852
-1.7553 gang_sentiong dan 3.7070
-1.1518 gang_sentiong dari 2.6074
-99.9990 gang_sentiong jam 1.8921
-99.9990 gang_sentiong jam_berapa 0.0063
-1.7496 gang_sentiong kapan_saja 1.8270
-0.4540 gang_sentiong ke -1.7265
-1.7788 gang_sentiong kira-kira 1.8749
-1.7496 gang_sentiong mau -1.7083
-0.8451 gang_sentiong naik 1.8809
-1.4962 gang_sentiong naiknya 1.8777
-1.7553 gang_sentiong sampai_di 3.7260
-1.7972 gang_sentiong transit 1.8746
-0.5314 gondangdia </s> 1.5298
-1.7945 gondangdia ada 2.1852
-99.9990 gondangdia ancol 0.0657
-99.9990 gondangdia angke 0.0669
-99.9990 gondangdia batu_ceper 0.0710
-99.9990 gondangdia bekasi 0.0657
-99.9990 gondangdia bogor 0.0669
-99.9990 gondangdia bojong_gede 0.0657
-99.9990 gondangdia bojong_indah 0.0669
-99.9990 gondangdia buaran 0.0669
-99.9990 gondangdia cakung 0.0633
-99.9990 gondangdia cawang 0.0645
-99.9990 gondangdia cicayur 0.0645
-99.9990 gondangdia cikini 0.0657
-99.9990 gondangdia cikoya 0.0657
-99.9990 gondangdia cilebut 0.0682
-99.9990 gondangdia cilejit 0.0645
-99.9990 gondangdia cipinang 0.0633
-99.9990 gondangdia cisauk 0.0696
-99.9990 gondangdia citayam 0.0633
-99.9990 gondangdia citeras 0.0682
-1.7397 gondangdia dan 3.7070
-1.1363 gondangdia dari 2.6074
-99.9990 gondangdia daru 0.0645
-99.9990 gondangdia depok 0.0669
-99.9990 gondangdia depok_baru 0.0696
-99.9990 gondangdia duren_kalibata 0.0645
-99.9990 gondangdia duri 0.0645
-99.9990 gondangdia gambir 0.0657
-99.9990 gondangdia gang_sentiong 0.0669
-99.9990 gondangdia gondangdia 0.0696
-99.9990 gondangdia grogol 0.0657
-99.9990 gondangdia jakarta_kota 0.0622
-99.9990 gondangdia jam 1.8921
-99.9990 gondangdia jam_berapa 0.0063
-99.9990 gondangdia jatinegara 0.0670
-99.9990 gondangdia jayakarta 0.0670
-99.9990 gondangdia juanda 0.0669
-99.9990 gondangdia jurangmangu 0.0670
-99.9990 gondangdia kali_deres 0.0669
-99.9990 gondangdia kampung_bandan 0.0657
-1.7341 gondangdia kapan_saja 1.8270
-99.9990 gondangdia karet 0.0669
-0.5090 gondangdia ke -1.6559
-99.9990 gondangdia kebayoran 0.0670
-99.9990 gondangdia kemayoran 0.0657
-1.7632 gondangdia kira-kira 1.8749
-99.9990 gondangdia klender 0.0962
-99.9990 gondangdia klender_baru 0.0657
-99.9990 gondangdia kramat 0.0657
-99.9990 gondangdia kranji 0.0669
-99.9990 gondangdia lenteng_agung 0.0645
-99.9990 gondangdia maja 0.0683
-99.9990 gondangdia mampang 0.0645
-99.9990 gondangdia mangga_besar 0.0645
-99.9990 gondangdia manggarai 0.0657
-1.7341 gondangdia mau -1.7083
-0.8296 gondangdia naik 1.8809
-1.4807 gondangdia naiknya 1.8777
-99.9990 gondangdia palmerah 0.0657
-99.9990 gondangdia parung_panjang 0.0670
-99.9990 gondangdia pasar_minggu 0.0696
-99.9990 gondangdia pasar_minggu_baru 0.0710
-99.9990 gondangdia pasar_senen 0.0657
-99.9990 gondangdia pesing 0.0670
-99.9990 gondangdia pondok_cina 0.0657
-99.9990 gondangdia pondok_jati 0.0682
-99.9990 gondangdia pondok_ranji 0.0669
-99.9990 gondangdia poris 0.0645
-99.9990 gondangdia rajawali 0.0633
-99.9990 gondangdia rangkas_bitung 0.0657
-99.9990 gondangdia rawa_buaya 0.0696
-99.9990 gondangdia rawa_buntu 0.0657
-1.7397 gondangdia sampai_di 3.7260
-99.9990 gondangdia sawah_besar 0.0622
-99.9990 gondangdia serpong 0.0645
-99.9990 gondangdia sudimara 0.0645
-99.9990 gondangdia sudirman 0.0657
-99.9990 gondangdia taman_kota 0.0696
-99.9990 gondangdia tanah_abang 0.0633
-99.9990 gondangdia tanah_tinggi 0.0669
-99.9990 gondangdia tangerang 0.0682
-99.9990 gondangdia tanjung_barat 0.0633
-99.9990 gondangdia tanjung_priok 0.0633
-99.9990 gondangdia tebet 0.0622
-99.9990 gondangdia tenjo 0.0657
-99.9990 gondangdia tigaraksa 0.0645
-1.7817 gondangdia transit 1.8746
-99.9990 gondangdia universitas_indonesia 0.0633
-99.9990 gondangdia universitas_pancasila 0.0696
-0.5545 grogol </s> 1.5298
-1.8176 grogol ada 2.1852
-99.9990 grogol ancol 0.0657
-99.9990 grogol angke 0.0669
-99.9990 grogol batu_ceper 0.0710
-99.9990 grogol bekasi 0.0657
-99.9990 grogol bogor 0.0669
-99.9990 grogol bojong_gede 0.0657
-99.9990 grogol bojong_indah 0.0669
-99.9990 grogol buaran 0.0669
-99.9990 grogol cakung 0.0633
-99.9990 grogol cawang 0.0645
-99.9990 grogol cicayur 0.0645
-99.9990 grogol cikini 0.0657
-99.9990 grogol cikoya 0.0657
-99.9990 grogol cilebut 0.0682
-99.9990 grogol cilejit 0.0645
-99.9990 grogol cipinang 0.0633
-99.9990 grogol cisauk 0.0696
-99.9990 grogol citayam 0.0633
-99.9990 grogol citeras 0.0682
-1.7628 grogol dan 3.7070
-1.1594 grogol dari 2.6074
-99.9990 grogol daru 0.0645
-99.9990 grogol depok 0.0669
-99.9990 grogol depok_baru 0.0696
-99.9990 grogol duren_kalibata 0.0645
-99.9990 grogol duri 0.0645
-99.9990 grogol gambir 0.0657
-99.9990 grogol gang_sentiong 0.0669
-99.9990 grogol gondangdia 0.0696
-99.9990 grogol grogol 0.0657
-99.9990 grogol jakarta_kota 0.0622
-99.9990 grogol jam 1.8921
-99.9990 grogol jam_berapa 0.0063
-99.9990 grogol jatinegara 0.0670
-99.9990 grogol jayakarta 0.0670
-99.9990 grogol juanda 0.0669
-99.9990 grogol jurangmangu 0.0670
-99.9990 grogol kali_deres 0.0669
-99.9990 grogol kampung_bandan 0.0657
-1.7572 grogol kapan_saja 1.8270
-99.9990 grogol karet 0.0669
-0.4615 grogol ke -1.7265
-99.9990 grogol kebayoran 0.0670
-99.9990 grogol kemayoran 0.0657
-1.7863 grogol kira-kira 1.8749
-99.9990 grogol klender 0.0962
-99.9990 grogol klender_baru 0.0657
-99.9990 grogol kramat 0.0657
-99.9990 grogol kranji 0.0669
-99.9990 grogol lenteng_agung 0.0645
-99.9990 grogol maja 0.0683
-99.9990 grogol mampang 0.0645
-99.9990 grogol mangga_besar 0.0645
-99.9990 grogol manggarai 0.0657
-1.7572 grogol mau -1.7083
-0.8527 grogol naik 1.8809
-1.5038 grogol naiknya 1.8777
-99.9990 grogol palmerah 0.0657
-99.9990 grogol parung_panjang 0.0670
-99.9990 grogol pasar_minggu 0.0696
-99.9990 grogol pasar_minggu_baru 0.0710
-99.9990 grogol pasar_senen 0.0657
-99.9990 grogol pesing 0.0670
-99.9990 grogol pondok_cina 0.0657
-99.9990 grogol pondok_jati 0.0682
-99.9990 grogol pondok_ranji 0.0669
-99.9990 grogol poris 0.0645
-99.9990 grogol rajawali 0.0633
-99.9990 grogol rangkas_bitung 0.0657
-99.9990 grogol rawa_buaya 0.0696
-99.9990 grogol rawa_buntu 0.0657
-1.7628 grogol sampai_di 3.7260
-99.9990 grogol sawah_besar 0.0622
-99.9990 grogol serpong 0.0645
-99.9990 grogol sudimara 0.0645
-99.9990 grogol sudirman 0.0657
-99.9990 grogol taman_kota 0.0696
-99.9990 grogol tanah_abang 0.0633
-99.9990 grogol tanah_tinggi 0.0669
-99.9990 grogol tangerang 0.0682
-99.9990 grogol tanjung_barat 0.0633
-99.9990 grogol tanjung_priok 0.0633
-99.9990 grogol tebet 0.0622
-99.9990 grogol tenjo 0.0657
-99.9990 grogol tigaraksa 0.0645
-1.8048 grogol transit 1.8746
-99.9990 grogol universitas_indonesia 0.0633
-99.9990 grogol universitas_pancasila 0.0696
-0.0000 ingin pergi 0.2957
-0.0000 jadwal kereta -3.6245
-0.5764 jakarta_kota </s> 1.5298
-1.8395 jakarta_kota ada 2.1852
-99.9990 jakarta_kota ancol 0.0657
-99.9990 jakarta_kota angke 0.0669
-99.9990 jakarta_kota batu_ceper 0.0710
-99.9990 jakarta_kota bekasi 0.0657
-99.9990 jakarta_kota bogor 0.0669
-99.9990 jakarta_kota bojong_gede 0.0657
-99.9990 jakarta_kota bojong_indah 0.0669
-99.9990 jakarta_kota buaran 0.0669
-99.9990 jakarta_kota cakung 0.0633
-99.9990 jakarta_kota cawang 0.0645
-99.9990 jakarta_kota cicayur 0.0645
-99.9990 jakarta_kota cikini 0.0657
-99.9990 jakarta_kota cikoya 0.0657
-99.9990 jakarta_kota cilebut 0.0682
-99.9990 jakarta_kota cilejit 0.0645
-99.9990 jakarta_kota cipinang 0.0633
-99.9990 jakarta_kota cisauk 0.0696
-99.9990 jakarta_kota citayam 0.0633
-99.9990 jakarta_kota citeras 0.0682
-1.7848 jakarta_kota dan 3.7070
-1.1813 jakarta_kota dari 2.6074
-99.9990 jakarta_kota daru 0.0645
-99.9990 jakarta_kota depok 0.0669
-99.9990 jakarta_kota depok_baru 0.0696
-99.9990 jakarta_kota duren_kalibata 0.0645
-99.9990 jakarta_kota duri 0.0645
-99.9990 jakarta_kota gambir 0.0657
-99.9990 jakarta_kota gang_sentiong 0.0669
-99.9990 jakarta_kota gondangdia 0.0696
-99.9990 jakarta_kota grogol 0.0657
-99.9990 jakarta_kota jakarta_kota 0.0622
-99.9990 jakarta_kota jam 1.8921
-99.9990 jakarta_kota jam_berapa 0.0063
-99.9990 jakarta_kota jatinegara 0.0670
-99.9990 jakarta_kota jayakarta 0.0670
-99.9990 jakarta_kota juanda 0.0669
-99.9990 jakarta_kota jurangmangu 0.0670
-99.9990 jakarta_kota kali_deres 0.0669
-99.9990 jakarta_kota kampung_bandan 0.0657
-1.7791 jakarta_kota kapan_saja 1.8270
-99.9990 jakarta_kota karet 0.0669
-0.4228 jakarta_kota ke -1.7871
-99.9990 jakarta_kota kebayoran 0.0670
-99.9990 jakarta_kota kemayoran 0.0657
-1.8082 jakarta_kota kira-kira 1.8749
-99.9990 jakarta_kota klender 0.0962
-99.9990 jakarta_kota klender_baru 0.0657
-99.9990 jakarta_kota kramat 0.0657
-99.9990 jakarta_kota kranji 0.0669
-99.9990 jakarta_kota lenteng_agung 0.0645
-99.9990 jakarta_kota maja 0.0683
-99.9990 jakarta_kota mampang 0.0645
-99.9990 jakarta_kota mangga_besar 0.0645
-99.9990 jakarta_kota manggarai 0.0657
-1.7791 jakarta_kota mau -1.7083
-0.8746 jakarta_kota naik 1.8809
-1.5257 jakarta_kota naiknya 1.8777
-99.9990 jakarta_kota palmerah 0.0657
-99.9990 jakarta_kota parung_panjang 0.0670
-99.9990 jakarta_kota pasar_minggu 0.0696
-99.9990 jakarta_kota pasar_minggu_baru 0.0710
-99.9990 jakarta_kota pasar_senen 0.0657
-99.9990 jakarta_kota pesing 0.0670
-99.9990 jakarta_kota pondok_cina 0.0657
-99.9990 jakarta_kota pondok_jati 0.0682
-99.9990 jakarta_kota pondok_ranji 0.0669
-99.9990 jakarta_kota poris 0.0645
-99.9990 jakarta_kota rajawali 0.0633
-99.9990 jakarta_kota rangkas_bitung 0.0657
-99.9990 jakarta_kota rawa_buaya 0.0696
-99.9990 jakarta_kota rawa_buntu 0.0657
-1.7848 jakarta_kota sampai_di 3.7260
-99.9990 jakarta_kota sawah_besar 0.0622
-99.9990 jakarta_kota serpong 0.0645
-99.9990 jakarta_kota sudimara 0.0645
-99.9990 jakarta_kota sudirman 0.0657
-99.9990 jakarta_kota taman_kota 0.0696
-99.9990 jakarta_kota tanah_abang 0.0633
-99.9990 jakarta_kota tanah_tinggi 0.0669
-99.9990 jakarta_kota tangerang 0.0682
-99.9990 jakarta_kota tanjung_barat 0.0633
-99.9990 jakarta_kota tanjung_priok 0.0633
-99.9990 jakarta_kota tebet 0.0622
-99.9990 jakarta_kota tenjo 0.0657
-99.9990 jakarta_kota tigaraksa 0.0645
-1.8267 jakarta_kota transit 1.8746
-99.9990 jakarta_kota universitas_indonesia 0.0633
-99.9990 jakarta_kota universitas_pancasila 0.0696
-1.8207 jalur kereta -1.8859
-0.0067 jalur tidak 0.0001
-0.0056 jam sembilan 0.0056
-1.8397 jam_berapa </s> 2.7325
-0.0128 jam_berapa kereta -3.3394
-1.8397 jam_berapa saya -1.8303
-0.5468 jatinegara </s> 1.5298
-1.8099 jatinegara ada 2.1852
-99.9990 jatinegara ancol 0.0657
-99.9990 jatinegara angke 0.0669
-99.9990 jatinegara batu_ceper 0.0710
-99.9990 jatinegara bekasi 0.0657
-99.9990 jatinegara bogor 0.0669
-99.9990 jatinegara bojong_gede 0.0657
-99.9990 jatinegara bojong_indah 0.0669
-99.9990 jatinegara buaran 0.0669
-99.9990 jatinegara cakung 0.0633
-99.9990 jatinegara cawang 0.0645
-99.9990 jatinegara cicayur 0.0645
-99.9990 jatinegara cikini 0.0657
-99.9990 jatinegara cikoya 0.0657
-99.9990 jatinegara cilebut 0.0682
-99.9990 jatinegara cilejit 0.0645
-99.9990 jatinegara cipinang 0.0633
-99.9990 jatinegara cisauk 0.0696
-99.9990 jatinegara citayam 0.0633
-99.9990 jatinegara citeras 0.0682
-1.7552 jatinegara dan 3.7070
-1.1517 jatinegara dari 2.6074
-99.9990 jatinegara daru 0.0645
-99.9990 jatinegara depok 0.0669
-99.9990 jatinegara depok_baru 0.0696
-99.9990 jatinegara duren_kalibata 0.0645
-99.9990 jatinegara duri 0.0645
-99.9990 jatinegara gambir 0.0657
-99.9990 jatinegara gang_sentiong 0.0669
-99.9990 jatinegara gondangdia 0.0696
-99.9990 jatinegara grogol 0.0657
-99.9990 jatinegara jakarta_kota 0.0622
-99.9990 jatinegara jam 1.8921
-99.9990 jatinegara jam_berapa 0.0063
-99.9990 jatinegara jatinegara 0.0670
-99.9990 jatinegara jayakarta 0.0670
-99.9990 jatinegara juanda 0.0669
-99.9990 jatinegara jurangmangu 0.0670
-99.9990 jatinegara kali_deres 0.0669
-99.9990 jatinegara kampung_bandan 0.0657
-1.7495 jatinegara kapan_saja 1.8270
-99.9990 jatinegara karet 0.0669
-0.4539 jatinegara ke -1.7265
-99.9990 jatinegara kebayoran 0.0670
-99.9990 jatinegara kemayoran 0.0657
-1.7787 jatinegara kira-kira 1.8749
-99.9990 jatinegara klender 0.0962
-99.9990 jatinegara klender_baru 0.0657
-99.9990 jatinegara kramat 0.0657
-99.9990 jatinegara kranji 0.0669
-99.9990 jatinegara lenteng_agung 0.0645
-99.9990 jatinegara maja 0.0683
-99.9990 jatinegara mampang 0.0645
-99.9990 jatinegara mangga_besar 0.0645
-99.9990 jatinegara manggarai 0.0657
-0.8450 jatinegara naik 1.8809
-1.4961 jatinegara naiknya 1.8777
-99.9990 jatinegara palmerah 0.0657
-99.9990 jatinegara parung_panjang 0.0670
-99.9990 jatinegara pasar_minggu 0.0696
-99.9990 jatinegara pasar_minggu_baru 0.0710
-99.9990 jatinegara pasar_senen 0.0657
-99.9990 jatinegara pesing 0.0670
-99.9990 jatinegara pondok_cina 0.0657
-99.9990 jatinegara pondok_jati 0.0682
-99.9990 jatinegara pondok_ranji 0.0669
-99.9990 jatinegara poris 0.0645
-99.9990 jatinegara rajawali 0.0633
-99.9990 jatinegara rangkas_bitung 0.0657
-99.9990 jatinegara rawa_buaya 0.0696
-99.9990 jatinegara rawa_buntu 0.0657
-1.7552 jatinegara sampai_di 3.7260
-99.9990 jatinegara sawah_besar 0.0622
-99.9990 jatinegara serpong 0.0645
-99.9990 jatinegara sudimara 0.0645
-99.9990 jatinegara sudirman 0.0657
-99.9990 jatinegara taman_kota 0.0696
-99.9990 jatinegara tanah_abang 0.0633
-99.9990 jatinegara tanah_tinggi 0.0669
-99.9990 jatinegara tangerang 0.0682
-99.9990 jatinegara tanjung_barat 0.0633
-99.9990 jatinegara tanjung_priok 0.0633
-99.9990 jatinegara tebet 0.0622
-99.9990 jatinegara tenjo 0.0657
-99.9990 jatinegara tigaraksa 0.0645
-1.7971 jatinegara transit 1.8746
-99.9990 jatinegara universitas_indonesia 0.0633
-99.9990 jatinegara universitas_pancasila 0.0696
-0.5467 jayakarta </s> 1.5298
-1.8098 jayakarta ada 2.1852
-99.9990 jayakarta ancol 0.0657
-99.9990 jayakarta angke 0.0669
-99.9990 jayakarta batu_ceper 0.0710
-99.9990 jayakarta bekasi 0.0657
-99.9990 jayakarta bogor 0.0669
-99.9990 jayakarta bojong_gede 0.0657
-99.9990 jayakarta bojong_indah 0.0669
-99.9990 jayakarta buaran 0.0669
-99.9990 jayakarta cakung 0.0633
-99.9990 jayakarta cawang 0.0645
-99.9990 jayakarta cicayur 0.0645
-99.9990 jayakarta cikini 0.0657
-99.9990 jayakarta cikoya 0.0657
-99.9990 jayakarta cilebut 0.0682
-99.9990 jayakarta cilejit 0.0645
-99.9990 jayakarta cipinang 0.0633
-99.9990 jayakarta cisauk 0.0696
-99.9990 jayakarta citayam 0.0633
-99.9990 jayakarta citeras 0.0682
-1.7551 jayakarta dan 3.7070
-1.1516 jayakarta dari 2.6074
-99.9990 jayakarta daru 0.0645
-99.9990 jayakarta depok 0.0669
-99.9990 jayakarta depok_baru 0.0696
-99.9990 jayakarta duren_kalibata 0.0645
-99.9990 jayakarta duri 0.0645
-99.9990 jayakarta gambir 0.0657
-99.9990 jayakarta gang_sentiong 0.0669
-99.9990 jayakarta gondangdia 0.0696
-99.9990 jayakarta grogol 0.0657
-99.9990 jayakarta jakarta_kota 0.0622
-99.9990 jayakarta jam 1.8921
-99.9990 jayakarta jam_berapa 0.0063
-99.9990 jayakarta jatinegara 0.0670
-99.9990 jayakarta jayakarta 0.0670
-99.9990 jayakarta juanda 0.0669
-99.9990 jayakarta jurangmangu 0.0670
-99.9990 jayakarta kali_deres 0.0669
-99.9990 jayakarta kampung_bandan 0.0657
-99.9990 jayakarta karet 0.0669
-0.4326 jayakarta ke -1.7476
-99.9990 jayakarta kebayoran 0.0670
